， 0.927419 -0.438193 -0.629161 1.564052 -0.229467 0.866624 -0.342079 -1.101859 -0.749913 0.169563 -0.042833 -1.118790 0.180114 0.356585 0.954018 -0.186946 -0.233574 1.388060 -0.664232 -0.320199 1.257567 -0.334286 -0.164495 1.189239 -0.525030 0.007555 0.017215 1.154430 -1.061989 0.490094
。 1.487351 0.252263 -0.764657 1.851952 0.057309 0.489421 -0.317017 -1.053317 -1.170839 -0.207475 -0.564925 -1.040617 0.372222 0.666654 0.541780 0.011439 0.119643 1.271444 -0.351430 -0.438244 0.523525 -0.493535 0.323148 0.665758 -1.458819 -0.242396 0.114851 1.794774 -0.584753 -0.094668
的 0.980184 -0.400761 0.536786 1.517295 0.178471 1.568752 -0.760044 -0.539736 -0.419000 0.470237 -0.149582 -0.953137 0.433191 0.505455 0.984473 -0.474880 -0.382198 0.980885 0.329500 -0.088276 0.490814 -0.236302 -0.045872 1.279391 -1.244865 -0.684660 0.465683 1.399795 -0.433873 1.427140
“ 0.504551 0.238847 -0.869272 1.787438 0.360031 1.418548 -0.332041 -1.597100 -1.136030 0.244643 0.797354 -1.206776 0.300070 1.384465 0.852436 -0.678729 0.039573 0.857735 -0.619896 1.395856 0.587466 -0.423458 -1.038723 0.482254 -1.649957 -1.027327 -0.599896 1.279784 -1.616197 -0.316218
” 1.123625 0.200688 -0.470827 1.842137 1.079650 0.609949 -0.232948 -1.196445 -1.125413 0.347530 0.644492 -0.837371 -0.220164 1.030136 0.584938 -0.301104 -0.220438 1.246523 -0.217465 0.489872 0.415173 -0.229972 0.064876 0.639103 -2.208855 -0.850925 -0.475111 1.787246 -1.206460 -0.456433
： 0.868415 0.437826 -1.069253 1.990102 0.240462 1.301158 0.048936 -1.374398 -0.886067 0.503576 1.080115 -1.290718 0.304490 1.298657 1.104745 -0.736379 0.284737 0.770709 -0.864863 1.579498 0.518122 -0.624657 -1.111578 0.024642 -1.754564 -0.939428 -0.380016 1.574716 -1.476095 -0.547174
了 1.148627 0.158846 0.111327 2.991884 0.956039 0.957804 -0.625749 0.007910 -1.489010 0.067274 -0.048968 -0.547361 0.895516 0.267642 0.538129 0.013459 -0.500398 0.829650 -1.464601 0.623250 0.908646 0.110579 0.306983 1.281433 -0.903664 0.251189 0.093729 1.428751 -0.347359 0.233470
是 0.501460 0.505825 -0.336324 2.237654 -0.545818 1.582183 -0.004343 -0.953201 -1.781961 -0.040474 0.879126 -1.184628 0.006086 0.035789 0.974030 -0.373241 0.366678 0.737736 0.466431 -0.932224 -0.187808 -0.632571 -0.338383 0.894323 -1.187876 -0.219733 0.023852 0.917967 -1.866731 0.318917
我 0.169462 0.202309 0.256206 2.461177 0.327925 1.845900 0.196958 -0.387084 -0.824350 -1.140974 0.079077 -1.083421 0.909867 0.387857 0.209912 0.790135 0.099853 0.394495 -0.213325 0.672609 1.439294 -0.935991 -0.131744 0.676604 -1.720505 -0.367383 -1.031450 1.134285 -1.711391 0.356175
一 1.604974 -0.515200 -1.284220 1.456375 0.663464 1.042264 -0.267818 -0.650340 -1.300872 0.421655 0.035969 -0.987812 -0.492196 0.732110 1.653957 0.025490 -1.054685 1.091637 -0.999192 0.498955 0.558292 -1.001240 0.924590 0.464070 -0.411661 0.936582 0.247879 1.390738 -0.636109 1.688908
不 1.371302 -0.230877 -0.043870 1.148597 0.638213 1.014775 -0.269905 -0.847081 -1.650084 -0.391726 0.727074 -0.785409 0.505062 0.125501 0.764056 1.111738 1.406504 1.542246 -0.452673 0.015832 1.342473 -0.184258 0.715071 1.301486 -1.619032 0.163475 -0.041652 0.638652 -1.931579 0.019742
你 -0.018193 0.278373 0.327242 2.099335 0.625183 1.909061 0.036987 -0.181542 -0.792281 -0.666660 0.420234 -0.654424 0.897983 0.990298 0.445011 0.641077 0.206991 0.596391 -0.405366 1.183718 1.475392 -0.836413 -0.215804 0.637664 -2.037631 -0.706502 -0.904136 1.114316 -1.903947 0.312928
他 0.733314 -0.643157 -0.247948 1.965991 0.520605 0.916180 -0.213212 -0.139061 -0.482732 -0.448660 -0.125337 -1.329287 -0.023267 -0.346066 1.012368 0.198385 0.306266 0.490940 -0.264814 -0.289821 1.344898 -0.928028 0.488375 1.376165 -0.775334 -0.515962 0.093426 1.796709 -1.154760 0.510561
？ 0.651790 1.005519 0.691739 2.165262 0.905257 1.586216 0.333684 -1.259655 -1.092068 0.720952 1.499386 -0.581452 -0.078450 0.486737 0.312759 0.213164 0.049456 0.250501 0.003300 0.588635 1.079507 -0.483848 0.790460 0.399747 -2.244319 -0.820594 -0.297354 0.594774 -1.916377 -0.202996
这 0.439221 0.057037 -0.476823 1.982680 0.612053 0.752287 -0.575732 -0.775071 -1.794814 0.103490 0.064036 -1.012701 0.585402 0.686193 1.001251 0.108118 -0.702534 0.336059 -0.273052 0.149744 -0.140887 -1.449575 0.829417 0.866163 -0.708794 -0.548204 -0.165322 0.887079 -1.666359 1.045346
在 1.975455 -0.594714 0.453642 0.925915 0.583253 2.070925 -0.212567 -2.015027 -0.294377 -0.720466 -0.330637 -1.560639 1.038106 -0.484021 1.182524 -1.041782 0.160167 0.833991 -0.620712 0.093653 0.924355 -1.464927 1.003003 0.369493 -0.064379 0.247862 -0.267421 1.015102 -0.604946 -0.447897
也 1.377216 0.008209 -0.157867 2.107889 -0.125669 0.383270 -0.441370 -0.605715 -1.746775 -0.401915 0.195182 -0.580271 0.783679 0.553576 0.881279 1.306702 1.043742 1.109420 0.201136 -0.266924 1.004620 -0.265457 0.061334 1.172546 -0.810003 0.117219 -0.301276 0.683940 -1.536342 -0.097718
那 0.933008 0.104850 -0.201226 1.463806 1.287514 0.564642 0.027679 -0.209890 -1.482337 0.258224 0.667190 -1.006848 1.149261 0.846929 1.769464 -0.850396 -0.550638 0.425192 -0.103084 -0.326004 0.206809 -0.793878 0.684705 0.663744 -1.291326 -0.294685 0.922990 1.248604 -1.370443 0.137888
道 0.820132 0.248859 -0.455498 1.976263 0.940863 0.907908 0.399121 -0.596719 -0.421743 0.814096 1.372518 -1.137192 0.140995 1.534063 1.585683 -0.444882 0.539286 -0.001078 -0.888635 1.217601 0.388395 -0.205058 -0.649670 0.505366 -1.806312 -0.570751 0.066395 1.131969 -1.093822 -0.127829
之 1.290649 -0.349484 -0.249054 1.596381 -0.487879 0.303674 0.540518 -2.298238 0.128989 -0.115388 0.515243 -2.088665 -0.032427 0.779722 0.027574 0.389094 -0.627889 -0.761695 -0.741123 -0.785363 -0.308362 0.186006 0.714352 1.991628 -0.840309 0.608638 -0.300523 1.039927 -1.376372 0.752852
人 1.081235 -0.267611 -0.105376 2.622063 0.336311 0.491585 -0.724543 -1.241714 -0.232832 0.547655 0.171594 -1.136433 0.651580 0.437662 0.928929 -0.653277 0.739487 0.495161 0.103627 -1.008034 0.876643 -0.109381 0.918587 0.548435 -1.302538 0.660554 -0.426804 0.539829 -0.437296 0.931835
说 0.518277 -0.108292 0.021624 2.052479 0.740059 1.083713 0.230412 -1.041932 -0.449344 -0.380864 0.774293 -0.846977 0.303882 0.676184 0.380573 0.915577 0.565834 1.047125 0.220006 0.513566 1.016861 -1.068193 -0.058452 0.393634 -0.911982 -0.335712 0.262562 1.580588 -1.396943 1.028133
得 0.802736 -0.081127 -0.046467 2.159675 -0.296695 0.944360 -0.388711 -0.789985 0.113699 -0.740911 -0.227090 -0.029716 0.443585 -0.006137 0.575126 -0.094882 0.555991 1.286217 -0.677147 1.039620 0.254319 0.342165 1.459931 0.894957 -1.200131 0.788307 1.095108 1.301385 -1.782247 0.969063
有 1.057500 0.195896 0.453937 1.752924 -0.391735 0.725874 -0.396179 -1.800787 -0.824011 0.791630 0.736595 -1.523131 0.176579 1.461905 0.628669 1.070670 -0.250400 0.245169 0.200864 -0.164959 0.818940 -0.958265 0.712288 0.594456 -0.652493 0.161255 0.475945 0.024310 -1.115793 1.206003
便 1.238423 0.154802 -0.691094 1.817142 0.316011 0.439717 -0.659047 -0.514559 -0.525046 -0.599272 -0.376850 -0.829554 0.131381 0.166760 0.948755 0.227285 -0.544143 1.021933 -0.724342 -0.500392 1.846195 -0.609846 0.447015 0.952600 -0.821266 0.104285 -0.000999 0.861234 -0.491998 0.253887
又 0.908387 0.170992 -0.517561 2.350519 0.038594 1.089970 -0.173377 -0.346893 -0.415160 0.207351 0.515720 -0.646322 -0.675854 0.411812 1.160722 -0.026108 -0.247692 0.018811 -0.426217 0.274569 0.838368 -0.441608 0.305923 0.600011 -0.569431 0.535683 0.470396 1.103021 -1.682620 -0.144682
去 0.502304 0.388968 -0.596913 1.657296 1.369294 1.733948 -0.162947 -0.447857 -0.315732 -0.552761 0.024179 -0.222383 0.118639 0.493251 0.128109 -0.244932 -0.393469 0.719405 -0.538582 -1.253351 1.605399 -0.162031 1.100566 0.076699 -1.162297 0.038655 -0.081870 2.407398 -0.918346 -0.420798
！ 0.342478 0.225396 -0.949598 1.386964 0.485025 0.261091 -0.654239 -1.016454 -0.802564 -0.040743 0.964690 -0.120382 0.710265 1.325319 0.599651 -0.495431 -0.968663 1.880218 -0.557022 0.560184 0.547013 0.521364 -0.729549 0.576680 -2.002336 -0.176403 -1.482752 1.442850 -1.768908 -0.353591
上 1.438047 -0.355097 1.036868 1.270995 0.820035 2.148640 -1.438421 -0.954917 -0.784709 0.196127 -0.207219 -0.798129 -0.833869 -0.143053 0.783038 -0.332991 -0.762025 1.721941 -0.981836 -0.331770 0.241648 -0.025103 0.516512 0.159509 -0.100779 0.372007 -0.073130 1.761859 -0.497546 0.504895
她 1.367531 -1.029330 0.417743 1.920641 0.975046 1.001217 0.664062 -0.017095 0.434031 -0.171823 -0.532466 -1.048073 0.252202 -0.450602 0.636988 0.351034 -0.234242 0.229252 -0.250180 -0.340151 1.356213 -0.931857 -0.227209 0.830521 -0.371497 -0.376960 0.007210 1.486106 -1.889132 0.444226
、 1.391846 -1.126464 -0.237382 2.074601 0.503853 2.150022 -0.966288 -1.071338 -0.288067 0.542371 -0.882850 -0.552764 -1.337317 1.614801 0.462213 -0.427235 0.899772 -0.474618 1.244928 -0.744882 0.019757 1.093637 -0.063849 0.344354 -1.144105 1.051261 -1.822287 0.702742 -0.418474 0.959795
中 1.896197 -0.989639 0.018808 1.374968 -0.402938 0.833562 -0.917604 -1.414377 -1.337886 -0.844036 0.206700 -1.135521 0.083735 0.566589 0.315310 -0.654922 -0.796907 0.388620 0.846089 -0.154847 0.777896 -0.404399 0.685701 0.363927 0.180501 0.439069 0.790682 1.922652 -0.278528 -0.188396
来 -0.329301 0.244665 -0.214410 2.117347 0.688644 1.634904 -0.690934 -0.852422 -0.201922 -0.378670 0.643736 -0.101220 0.108765 1.197057 0.410899 0.110864 -0.389072 0.836411 -0.029959 -0.543600 1.186888 -0.174246 0.555867 -0.141568 -0.536812 0.767697 0.075088 1.784712 -1.224880 0.149322
要 0.092922 0.760840 -1.182971 1.630562 0.287003 1.551962 -0.021936 -0.682806 -0.178250 -0.917798 -0.260604 -0.559694 0.071794 0.098960 0.000151 0.086292 -0.227823 0.515683 0.218808 -0.376642 1.879684 -0.854811 0.377239 1.027906 -1.435795 0.245923 0.201622 0.981608 -1.829495 0.484986
却 1.269841 -0.458895 0.058285 1.426436 -0.019400 0.683269 -0.249122 -0.785094 -0.836712 0.124485 0.407544 -0.585259 0.136642 -0.247553 1.136333 0.447614 0.649090 0.514409 0.322343 -0.696355 0.820570 -0.235487 0.843804 1.051513 -0.541538 -0.085701 0.443111 0.887466 -1.626199 0.366898
到 0.357482 0.047431 -0.187026 1.634811 1.428493 1.247187 -0.963164 -1.776997 0.034023 0.317738 -0.511566 -0.972942 0.459848 0.533950 0.537002 -0.307999 -0.281832 0.976396 -1.070181 -0.320478 1.010463 -0.690898 1.292411 0.059390 0.002393 0.367307 0.257139 1.404802 -1.185549 -0.297005
段誉 1.501518 -0.611646 -0.850253 1.854782 1.006575 0.475274 -0.331979 -0.704830 0.100347 0.286365 0.102589 -0.727324 -0.390909 -0.179045 1.000003 -0.262215 0.329613 0.324231 -0.502185 -0.217426 0.707001 -0.330931 -0.196026 0.680617 -0.262657 -0.226955 -0.237364 1.959827 -1.215229 -0.141690
着 1.756412 -0.812986 0.860032 1.023449 1.196045 1.093392 0.325063 -0.244821 0.168071 0.038233 0.642518 -0.840889 0.445987 0.163810 1.741315 0.402443 -0.269183 1.819085 -0.420296 -0.838745 0.190131 -0.705067 -0.174883 -0.204999 -0.442454 0.264424 -0.313090 2.204738 -0.609728 0.718434
将 0.736197 -0.284730 -0.567490 1.271167 0.989421 1.448776 -0.774621 -0.248923 -0.041546 -0.535268 -0.525476 -0.978383 0.903194 -0.046518 1.048879 -0.131844 -0.938861 0.552727 -0.569216 -0.015992 1.220235 -0.470547 0.750582 1.518294 -0.816256 0.590219 -0.626068 1.602587 0.168142 0.561082
和 0.889589 -1.136064 -0.524339 1.338499 0.880405 1.379411 -0.075634 -0.787612 -0.801245 0.089652 -0.945965 -1.188485 0.297167 0.934269 0.754716 -0.303930 1.143456 -0.274574 0.265842 -1.183269 0.434499 0.058104 0.007145 0.477281 -0.829334 -0.586739 -0.529141 1.261363 -1.258857 0.707646
向 1.439067 -0.075985 -1.006141 1.216034 0.840652 0.803490 0.071540 -0.216743 -0.052566 -0.098451 0.283970 -0.470212 -0.990869 0.896418 1.458891 -0.970230 -0.126293 0.561930 -0.545152 -1.146645 1.353091 -0.702074 1.071826 -0.584398 -1.095407 -0.354793 0.190795 2.355505 -0.014567 0.014884
…… 0.131798 0.107762 0.678215 1.746274 0.391032 1.057965 -0.002742 -0.602478 -1.008959 -0.384644 0.365234 -0.739087 0.000723 0.961386 0.785993 0.252496 -0.372380 0.324977 -0.285838 1.499124 0.972473 -0.892334 -0.758844 0.424622 -1.137406 -1.200591 -0.963412 0.423759 -2.155271 -0.459307
已 0.564217 -0.653402 -0.754435 1.870643 0.551049 0.308711 -0.887098 -0.581398 -1.166147 0.094691 -0.734498 -1.502732 0.485552 -0.844631 1.350383 -0.479904 0.514350 0.386441 -1.071660 -0.457108 0.247593 -0.450639 0.979346 1.465841 0.303343 0.483153 0.389225 0.892055 -0.750360 -0.078928
但 0.806768 -0.807846 -0.583021 1.548464 -0.399225 0.472863 -0.576214 -0.697300 -0.784500 -0.259637 -0.363582 -1.160015 -0.305396 -0.134045 0.893477 0.402245 0.522909 0.437459 0.137432 -0.858404 0.909869 -0.264001 0.336031 1.246101 -0.122135 0.020583 0.540937 1.158072 -1.528975 0.420218
都 1.410846 -0.345524 -0.522845 2.597243 -0.547117 1.060307 -0.690601 -0.737463 -1.165119 0.126811 0.295856 -0.465056 0.317450 -0.713387 0.686723 -0.173322 0.384608 0.401112 0.608123 -0.324827 0.820167 -0.077670 0.105459 0.282484 -0.436447 0.485682 -0.627947 0.858800 -0.303135 1.149854
说道 0.907028 -0.011208 -1.100355 1.130687 0.003702 0.979782 0.301292 -1.210140 -0.265050 0.645998 0.738199 -1.090606 0.542721 1.268132 1.302082 -0.478455 0.295144 1.063327 -1.247023 1.036503 1.033584 -0.157635 -1.270238 0.206604 -0.836432 -0.501013 0.156419 1.411448 -0.469267 0.351980
什么 0.949599 0.962483 0.972833 2.100507 0.358240 1.089488 -0.050647 -1.139147 -1.213432 0.856349 1.234238 -0.368219 -0.203397 0.908707 -0.488391 0.826899 -0.397412 0.338163 0.687925 1.017554 0.439482 -0.642511 0.520004 0.277361 -1.754484 -0.331296 -0.186422 0.450927 -1.393512 0.406764
两 1.434161 -0.688089 -0.444965 1.680743 0.920912 0.253298 -0.457286 -0.870150 -0.665841 -0.114266 -0.365403 -0.667015 0.121614 1.494654 1.219847 -0.774231 -0.341569 1.094690 -0.286296 -0.608554 0.290995 -0.447039 0.724167 0.135214 -0.855220 0.940974 -0.337409 0.600358 -0.260921 1.447368
好 0.438507 0.587912 0.127953 1.964376 -0.064752 1.067208 -0.429877 -0.583521 -0.564429 0.160624 -0.412458 0.355508 1.344211 0.762693 0.682543 0.404931 0.065369 1.575099 -0.594606 0.651039 0.329853 0.193680 0.029220 0.488338 -1.711101 -0.585679 -0.434840 1.253400 -1.977633 0.627746
个 0.619559 -0.121346 0.931761 2.806702 0.991671 0.209317 -0.209406 -0.334070 -0.722387 -0.596928 0.031274 -0.348469 0.629268 1.179501 1.064481 -0.720431 -0.095784 1.270687 0.031543 -1.030714 0.331448 -0.496089 -0.345252 -0.488414 -0.682778 0.691822 0.531546 -0.185159 -1.273260 1.211645
只 1.316722 -1.265348 -0.311234 1.586416 0.236495 0.284803 -0.447010 -0.197002 -0.419185 -0.437034 -0.525941 -0.889527 -0.189920 0.882734 1.263121 0.078039 -0.289386 0.182420 0.157958 0.855635 0.439112 -0.579330 0.695018 0.423956 -0.306210 0.746828 0.357730 1.350182 -1.571472 0.330305
过 0.380163 -0.647695 0.253490 2.072144 1.027697 0.885050 -0.308609 -0.498528 -0.941349 0.401895 0.468851 -0.541018 0.116404 1.496363 0.109637 1.300451 0.102100 0.407317 -1.204160 0.306431 1.473785 0.731626 -0.041023 0.996251 0.314693 0.463654 1.008905 1.357276 -0.429598 0.494480
’ 0.320546 -0.736691 0.297407 1.530889 1.972247 0.173167 -0.849380 -1.551028 -1.172567 -1.379286 1.115012 -0.857022 -0.925587 1.424072 -0.364834 -0.783984 -0.154044 0.615160 0.517023 0.086783 -0.151839 0.063369 -0.570408 1.470445 -1.412391 -0.323561 -0.022239 0.112567 -1.242047 0.952509
‘ 0.126431 -0.724110 0.160899 1.447146 1.832954 0.490503 -0.773667 -1.692629 -1.047816 -1.380692 1.186609 -1.171294 -0.966046 1.307555 -0.254844 -0.874746 -0.091734 0.570634 0.515675 0.267504 -0.091141 -0.281393 -0.811107 1.333883 -0.984315 -0.256228 0.065327 0.072692 -1.287424 1.055512
能 0.515197 0.062963 -0.012484 0.771565 0.923494 1.037825 -0.362802 -1.073505 -1.038418 -0.385810 0.111225 -0.844497 0.048223 0.031846 0.239589 0.772364 0.659810 0.715953 -0.650437 -0.275596 1.826291 -0.328593 1.279408 1.655314 -1.418576 -0.206766 0.136074 -0.470467 -1.208908 0.707244
见 1.036120 -0.733191 -0.258430 1.785119 0.260699 0.944371 0.189255 -0.301372 -0.773596 0.488304 0.211399 -1.008705 0.169528 0.183111 1.252266 0.094204 0.197025 -0.298897 -0.485156 -0.877482 0.784861 0.090905 0.133248 -0.005825 0.091979 -0.185388 0.391335 1.612642 -0.981426 0.548681
自己 0.747367 -0.219451 -0.091842 1.520238 0.121541 1.154007 0.190239 -0.097811 0.187978 -0.287376 -0.681654 -1.390207 -0.110276 -0.872180 1.021867 0.577346 -0.119835 0.076359 -0.088506 -0.664239 1.441623 -1.140456 -0.117161 1.319879 -0.555224 -0.365656 -0.171361 0.802025 -1.237104 0.750352
下 1.004588 0.594357 0.316962 1.387908 -0.344798 1.710219 -0.430413 -1.098652 0.244356 -1.153865 1.050182 -0.984108 -0.520939 0.047463 1.094635 -0.305419 -0.429150 1.010771 -1.609536 0.293429 0.417417 -0.376918 0.334597 0.662179 -0.615185 0.210859 0.438644 1.443349 0.705411 0.554208
再 0.506438 0.020921 -0.212755 1.579547 0.805264 0.347080 -0.471338 -0.247907 -0.750927 -0.891349 -0.189961 -0.468971 -0.045846 0.803912 0.308012 1.416070 0.374660 0.917242 -0.931272 -0.433431 1.834971 -0.322443 0.655467 0.710216 -0.771501 -0.079525 0.101561 1.027961 -0.925902 0.141766
想 0.400984 0.378761 -0.771741 1.840278 0.201693 1.249833 0.116439 -0.512195 -0.635816 -1.059625 0.570015 -0.754044 -0.163831 -0.106305 -0.006578 0.526767 0.387688 0.534908 -0.062953 -0.097743 1.086609 -0.655569 0.329898 0.253205 -0.756294 0.388868 0.463140 1.268775 -2.019584 0.185342
为 -0.026778 -0.276099 -0.385110 1.302075 -0.053815 0.989527 0.717830 -0.987465 -0.896311 -1.225454 0.535480 -2.258149 -0.190024 0.026358 -0.323931 -0.236306 0.607822 -0.291940 -1.134137 -1.079825 0.151413 0.553620 -0.083978 1.556799 -1.565330 0.270899 -0.183451 0.346551 -0.818916 1.089190
出 0.671629 -0.247731 -0.517710 1.377808 0.385735 -0.152253 -1.150774 -0.256380 -0.027151 -0.721689 0.518235 -0.820636 -0.996818 0.730121 1.528584 -0.311822 -0.970272 1.021399 0.216864 -0.260914 0.924452 -1.001338 1.600529 0.353515 -0.930149 0.263819 0.620438 1.544282 -0.658139 0.366813
大 1.222319 -0.482861 0.797844 1.460796 -1.249476 0.360661 -0.242004 -0.339478 -1.135174 -0.702741 0.002873 -1.603045 0.119420 0.965599 0.877664 -0.109753 -0.735268 0.900755 -0.931540 0.042456 -0.068065 0.503320 0.261626 -0.327959 -1.810458 -0.075246 -0.129750 0.791187 -0.615226 1.326967
慕容 0.657188 0.508574 -1.365872 1.760855 0.931698 1.457432 -0.235700 -1.902608 -0.226570 -1.324021 -0.068774 -0.153546 -0.786556 0.102605 0.390388 -1.333457 1.100668 0.014024 -0.511846 0.094657 0.270161 -0.173206 -0.038712 0.725450 -0.365323 -1.312123 0.884793 0.813605 -0.620680 0.894254
一个 0.744335 -0.317581 1.013061 1.508364 0.142359 0.831397 0.080095 -0.608930 0.151460 -0.034161 -0.060572 -0.538037 0.738164 1.304043 1.641210 -1.040636 -1.005607 0.611404 0.316105 -0.731586 1.295882 -0.228310 0.077982 -0.113872 -0.796769 0.088703 1.349319 0.078276 -1.446785 0.752349
萧峰 1.030692 -0.741529 -1.379599 1.307192 0.540728 0.706338 0.119055 -0.575717 -0.075772 0.699397 0.016999 -0.957987 0.273776 -0.149288 1.061073 -0.191800 0.340696 -0.132529 -0.907124 -0.463090 0.760212 -0.126132 0.025857 0.186387 -0.185648 0.094532 -0.387173 1.704080 -0.727259 0.127174
给 0.344520 0.106037 0.020361 2.228555 1.166150 1.451701 -0.541499 0.445929 -0.837846 -0.384858 -0.621016 -0.100454 0.827196 -0.148072 0.098836 0.050869 -0.328758 0.101980 -0.158979 0.395357 1.059002 -0.364468 0.429016 0.830354 -1.123642 -0.087951 -0.548758 1.234732 -0.439817 0.845948
就 0.419886 0.248133 0.081493 1.605646 0.604621 0.758276 -0.369915 -0.670447 -1.162171 -0.941674 0.152584 -0.400542 1.197422 -0.015839 0.021108 0.909919 0.252774 0.976003 -0.731543 0.328621 0.940298 -0.189261 0.541508 0.576334 -0.977312 -0.105471 -0.615254 0.249000 -1.621793 0.260032
声 2.018439 -0.835431 -1.717111 1.064008 0.102802 0.101366 -0.408513 -0.983229 0.105085 0.166655 -0.069892 -0.268221 0.040445 0.960100 0.998518 -1.411723 -0.935412 0.971060 -0.246934 1.851160 0.505816 -0.211522 0.497790 0.924212 -0.908197 0.850413 0.429981 1.164492 -0.377913 1.379970
听 1.148592 -0.860604 -0.571884 1.875400 0.172198 0.352371 0.033243 -0.808159 0.132266 -0.221458 0.179658 -0.652553 0.219547 0.507596 0.590862 -0.111094 1.386032 0.194219 0.490894 1.127908 0.599955 -0.303843 0.390577 0.203500 -0.713476 -0.328210 0.996009 1.826805 -1.166626 0.723355
而 0.672079 -0.091098 -0.170530 1.078909 -0.175816 0.971623 -0.175083 -0.799165 0.043171 -1.178047 1.042030 -1.012178 -1.150625 -0.079355 0.923718 -0.032269 0.303725 0.076818 -0.601112 -1.103433 0.742489 0.575856 0.962927 1.049965 -0.750660 1.243461 0.267040 1.029046 -0.721249 -0.155059
没 0.729439 -0.288332 0.681486 1.810617 0.765342 0.431615 -0.565843 -0.665746 -1.112505 0.359426 0.416709 0.008113 0.820876 0.719666 0.949928 1.518888 0.012313 -0.016609 -0.063691 0.486754 1.972707 -0.269592 0.640479 0.553369 0.193761 -0.753992 0.040688 0.567057 -1.358366 0.091752
三 0.974159 -0.202605 -0.369400 2.303286 0.863325 0.451590 -1.177051 -0.940827 -0.345444 -0.269108 -0.331986 -0.503041 -0.639895 1.144845 1.317721 -0.640023 0.705498 0.784508 -0.171383 -0.346579 -0.044620 -0.319452 0.474403 0.173826 -1.049436 0.483473 -0.831685 0.104184 0.174445 1.497933
虚竹 1.208800 -0.448091 -0.735642 1.243312 0.147018 0.407336 -0.528053 -0.503008 -0.250298 0.401382 0.107860 -0.935629 -0.517954 0.331050 1.259132 -0.116616 0.229941 0.231365 -0.704323 -0.052779 0.659954 -0.008718 -0.067495 0.639314 -0.704004 -0.686956 -0.497029 1.754812 -0.185061 -0.642775
几 0.981189 -0.158149 -0.086966 2.292520 0.553752 0.372737 -0.441257 -0.588031 -0.318927 -0.407580 -0.144282 -0.299567 -0.021922 1.103521 0.861843 0.251502 -0.454649 0.841885 -1.018898 0.394836 0.547916 -0.568251 0.568891 -0.094285 -0.077803 0.603045 0.542965 0.854851 -0.248440 1.959024
会 0.352432 0.311027 0.299627 0.986260 0.740974 1.143162 -0.532139 -1.134901 -0.475778 -0.529062 0.303007 -0.261901 0.346821 0.295551 0.640910 0.690789 0.377330 0.512731 0.392088 0.308945 1.585868 -0.625785 0.617901 1.405338 -0.766435 -0.343610 0.301315 -0.214389 -1.470375 0.281233
对 0.780229 -0.427759 -0.187061 1.535386 0.075958 0.960738 0.378244 -0.355886 -0.691053 -0.397557 0.289061 -0.595012 0.048145 0.127522 0.858036 0.693393 0.311485 0.140450 -0.345561 -0.758122 0.335084 -0.055062 -0.862123 0.538932 -0.429028 -1.185865 -0.316782 1.424275 -1.162594 1.257112
可 0.400955 0.406039 -0.065500 1.362456 -0.010865 0.300819 -0.341666 -0.825323 -0.995375 -0.165219 0.252362 -0.361377 0.677226 0.246597 0.141218 0.851173 -0.027437 0.860145 -0.577534 0.565219 0.561939 -0.296425 0.716509 1.250045 -1.334592 -0.360982 -0.417751 0.238248 -1.511488 0.691480
等 0.977134 -0.184383 -0.813567 2.099652 0.388759 0.833109 -0.993872 -1.373791 -0.515246 1.131212 -0.280059 -0.421834 -0.128694 0.371895 0.457145 0.299595 1.365899 -0.340852 0.163877 -0.703975 0.060054 0.387509 0.987902 0.192028 -0.670725 -0.192658 -1.158538 0.885128 -0.027068 0.743483
从 1.183161 -0.507360 0.351118 0.868594 0.632503 1.114103 -0.561076 -0.905596 0.290685 -0.011715 0.490990 -0.737711 0.138553 0.965695 0.908280 -0.150059 -1.355279 -0.127214 0.200872 -0.202420 1.573338 -0.518696 1.057336 0.357156 0.146579 0.466956 0.657533 1.788404 0.326676 -0.161533
还 0.236362 0.294212 0.767609 1.155153 1.110841 0.582861 0.065534 -0.655940 -0.515495 -0.155389 1.088553 -0.511984 0.716514 0.453566 0.821892 0.753660 0.620184 0.223336 -0.841322 0.555243 0.683705 -0.315168 1.353997 0.908534 -1.209745 -0.445813 -0.132837 0.300668 -1.076811 0.410983
以 0.128015 -0.440119 -0.700013 0.479049 0.547780 0.918610 -0.457275 -1.230254 -0.581726 -0.177225 0.785947 -1.665073 -0.816056 0.093030 0.114099 0.340423 -0.114274 -0.151058 -0.370359 -1.045577 0.302333 0.130243 0.094204 2.234747 -0.739142 -0.093287 -0.220458 0.631976 -0.506344 1.221318
走 0.268919 -0.156269 0.046171 1.565456 0.996868 0.040436 -0.993158 -0.930574 0.224425 -0.168179 0.174913 -0.480842 0.473576 1.136821 0.760246 -0.413362 -0.510302 1.601339 -1.043366 -0.900056 1.229143 0.366748 0.598369 -0.589528 -0.444293 0.306870 -0.001967 1.990093 -0.276502 -0.699452
所 0.576833 -0.104319 0.594511 0.850088 0.167544 1.797106 -0.691215 -1.131085 -0.731728 -0.441163 -0.213557 -1.552227 -0.556524 -0.580792 0.820515 -0.238960 0.449385 -0.330878 -0.141830 -0.867169 -0.657155 -0.218666 0.185258 1.664074 -0.585397 -0.616116 0.623370 0.724946 -0.906309 0.387346
多 -0.201113 0.011343 0.988335 1.905957 -0.428753 0.527954 -0.275316 -1.019127 -0.194567 -0.461333 0.127027 -1.140827 0.660835 1.132636 0.474480 1.250905 0.708749 1.086982 -1.368186 -0.784036 0.347372 0.361407 0.497649 0.196907 -0.531341 0.568876 0.812983 0.789960 -1.429878 0.629086
死 0.269518 0.315460 0.017169 2.123715 0.033608 1.102788 0.038158 -0.328478 -0.668067 -1.147399 0.097459 -0.924665 0.793327 -0.431989 0.726083 -0.162409 0.243269 0.003005 -0.927881 0.335278 1.040416 -0.214981 0.745632 0.969961 -1.125314 0.690951 -1.243416 -0.090724 -1.320614 -0.161963
叫 0.720905 -0.476074 -0.125578 1.942365 0.311835 0.404548 0.017539 -0.407965 0.009282 -0.921149 0.732506 -0.217257 0.589943 0.646897 -0.399983 -0.452284 -0.130977 0.642997 0.155475 1.223169 1.408400 0.211005 -0.451308 0.206258 -1.809159 0.349524 -0.638354 0.603197 -1.140045 0.683108
小 0.615469 -0.500208 0.742806 0.341671 0.489239 1.268226 0.411770 -0.330346 -1.151769 -0.419157 -0.338825 -0.912949 0.821644 2.079587 1.122519 -0.306425 -0.909924 0.595062 -0.486637 -0.401623 -0.074931 -1.017761 -0.109665 -0.011764 -0.866158 0.174133 -0.500064 0.440580 -2.060170 0.184500
武功 -0.668968 -0.108990 0.551776 1.003327 -0.830662 1.065904 -1.576101 -1.102643 -0.815545 -0.318459 0.039279 -1.086131 0.073097 0.327490 1.265582 0.460523 0.963820 0.165918 0.632806 -0.068989 -0.254717 0.209544 0.744585 2.062632 -0.914039 -0.889400 0.618215 0.838078 -0.999057 0.884518
起 1.498169 -0.255503 -0.552734 1.085192 0.845863 1.288129 0.672939 -0.251487 0.329017 -0.483071 1.105524 -0.339853 -0.064305 0.755208 0.954980 0.343756 -0.353717 1.180944 -0.586599 -0.133181 1.215228 -0.163592 -1.328170 0.177159 0.254214 1.199239 0.177548 1.441479 -0.106255 0.340326
时 0.817529 -0.828146 -0.115537 1.968530 0.612637 -0.360780 -0.256895 -1.011907 -0.272362 0.053204 -0.400282 -1.377501 0.325056 0.528703 0.009140 0.604281 -0.587195 -0.059390 -1.454276 -0.491957 0.559984 0.085943 -0.067149 0.618535 0.474583 0.131185 0.537426 0.969136 -0.737266 0.711295
笑 1.395784 -0.020595 -1.140549 1.177575 1.209121 0.605990 0.628255 -0.520938 0.074630 1.419126 1.011778 0.082439 0.230567 0.701056 0.926229 -0.209366 0.465861 0.343301 -0.925064 0.940277 0.145594 0.357097 -0.015456 0.423199 -1.377043 0.487025 -0.179091 0.842048 -1.375195 0.973870
乔峰 0.795492 -0.640112 -1.025184 1.158265 0.301849 0.433327 0.052033 -0.315741 -0.463254 0.489879 0.182681 -1.008632 0.022849 0.077500 0.882321 -0.346402 0.406590 -0.313787 -0.373477 -0.179424 0.634897 -0.263027 -0.106967 0.315762 -0.452628 -0.682859 0.092751 1.527208 -0.561421 0.173499
跟 0.084191 -0.118150 0.239824 1.438474 0.738098 1.201424 0.233745 -0.541023 -0.768371 -0.643594 -0.213658 -0.221684 0.881221 0.777249 -0.022117 0.820568 0.991410 0.708599 0.236820 0.049602 1.278963 -0.748098 0.023410 -0.262547 -0.979789 -0.715218 -0.724702 0.509448 -1.330815 0.515545
姑娘 0.779691 0.255057 0.108066 1.150918 0.745830 1.537782 0.754083 -1.032861 -0.225099 0.129371 -0.893720 -0.222910 0.479277 0.985163 -0.155924 -0.193595 -0.235054 0.389822 -0.696756 0.109111 0.819553 -0.512647 -0.724585 -0.011593 -0.954659 -1.324914 0.107242 0.088592 -2.342691 0.591649
瞧 1.476908 -0.212568 0.470356 1.727282 0.602612 0.875009 0.355554 0.112375 -0.336369 0.066624 0.423712 0.229908 0.310673 -0.232958 0.754927 0.712527 0.255784 0.603000 -0.019318 -0.745577 0.830267 -0.497648 0.314556 -0.714504 -0.540862 -0.967549 0.296106 1.798784 -1.223364 1.037646
打 -0.336652 -0.321414 -0.470077 1.755082 0.550065 0.914937 -0.752140 0.269297 -0.287469 -0.584499 -0.274152 -0.552531 0.258994 -0.389781 1.153440 -0.548414 -0.653670 0.778602 -1.180005 0.947710 1.049849 -0.299616 0.503865 0.460672 -0.834743 0.930962 -0.374969 -0.009453 -1.668511 1.201449
阿紫 1.083315 -0.785745 -0.736363 0.870910 0.849512 0.799020 0.647553 0.009056 0.381311 0.549274 -0.205760 -0.695310 0.462679 0.406339 0.970347 -0.284584 -0.176998 -0.380947 -0.619246 0.041484 0.865735 -0.194771 0.063812 0.346658 -0.708983 -0.107884 -0.570115 1.414898 -1.573960 -0.202027
王语嫣 1.437848 -0.333002 -0.485500 1.761855 0.980668 0.786074 0.276879 -0.639921 0.428296 0.424254 0.015911 -0.260406 -0.475379 -0.281908 0.650497 -0.191245 0.884903 0.089661 -0.199358 -0.230857 0.529511 -0.163590 -0.594160 0.101041 -0.367946 -0.566248 -0.062187 1.230801 -1.285346 0.005507
啊 1.196935 -0.009649 -0.750873 1.337881 0.094316 0.452578 -0.173854 -1.116245 -0.399076 0.146900 0.493362 0.546452 0.618244 0.707100 0.048255 -0.976177 -0.631194 1.071950 0.636855 1.727922 0.340136 -0.045139 -0.411278 0.097912 -1.406274 -0.015662 -0.799691 0.732132 -2.127621 -0.075367
话 0.545986 -0.214364 -0.477872 2.002776 0.513062 -0.027354 0.231490 -1.074170 -0.633358 -0.176098 0.883811 -0.584921 0.514477 0.925735 0.082382 1.130068 0.618693 0.237664 0.463827 1.020363 0.931564 -1.407136 0.459467 0.381352 -0.132552 -0.385074 0.765629 1.035886 -0.951446 1.386024
咱们 -0.394524 0.577930 -0.585155 1.366493 0.484241 0.886648 -0.262769 -1.043217 -0.962985 -0.424827 0.095327 -0.358106 1.114844 0.475840 -0.499788 0.266787 -0.051329 1.120364 -0.549796 -0.369319 1.225656 -0.100846 0.035145 -0.163260 -1.014276 -0.236897 -0.508323 0.791060 -0.878029 -0.066143
出来 1.249943 -0.064556 -0.080954 1.333254 0.463270 0.591169 -0.510933 -0.346954 -0.247928 0.037137 0.090704 -0.004336 0.760655 0.322320 -0.145369 -0.382906 -1.094326 0.602640 0.156905 0.174203 1.501791 0.246209 0.304647 0.618991 -0.993060 0.015271 0.234137 1.312011 -0.289339 0.310906
谁 0.139590 0.585540 0.159283 1.786096 0.217544 0.881324 0.085200 -0.803341 -0.742667 -0.241569 1.257443 -0.638689 0.346131 -0.204641 0.149503 0.273905 0.988002 0.399044 0.367294 0.068581 1.281091 -0.331947 0.103370 0.311854 -1.320612 -0.349697 0.246067 0.278577 -0.992741 0.133302
杀 -0.659364 0.390475 -0.436555 2.109162 0.422430 1.134947 -0.312402 -0.021765 -0.276175 -0.978221 -0.092162 -0.566238 0.499436 0.257837 0.326666 -0.022850 0.053428 -0.277720 -0.078191 -0.283897 1.431288 0.116535 0.090346 0.888476 -1.341575 0.202444 -0.497752 0.212908 -1.253874 0.563639
更 0.919189 0.235956 0.163397 1.386433 -1.000949 -0.295437 -0.256649 -0.982585 0.057815 0.143676 0.189138 -0.999012 -0.170533 0.294870 1.044360 0.680355 0.320564 0.347373 -0.296702 -0.547686 0.147977 -0.100363 0.692839 0.815019 -0.881798 -0.345690 0.225687 0.614043 -0.771738 0.290364
不知 0.255956 0.833622 0.233719 1.834239 0.039074 0.879596 -0.094879 -1.303371 -0.716755 0.703840 0.561995 -0.625699 0.302871 -0.362866 0.395010 0.508323 0.181189 -0.040980 -0.167357 -0.483541 1.014673 -0.743635 0.454448 0.800175 -0.444395 -0.940485 0.553700 0.199272 -1.097069 0.292849
知道 0.250152 0.055922 -0.235461 1.540645 0.422658 1.015203 -0.413737 -0.832582 -0.726909 0.226511 0.293841 -0.529819 0.341587 -0.357069 0.412649 0.022345 0.448566 -0.048787 0.455465 0.556766 0.699139 -0.675513 -0.092369 0.964105 -0.761908 -0.680243 -0.223076 0.400423 -1.645699 0.137543
与 0.696078 -0.961295 -0.519659 0.814642 0.485134 1.014833 -0.273875 -1.370643 -0.903931 -0.243096 -0.689295 -1.364201 -0.455315 0.194548 0.273341 -0.111799 1.225884 -0.460302 0.152011 -1.192513 0.468100 0.323792 0.124608 1.021487 -0.325165 -0.763604 -0.126677 0.620270 -0.512307 0.469583
极 0.340492 -0.259316 -0.176035 0.923033 -1.047515 0.110494 -0.339604 -0.955585 -0.202648 0.611923 0.207926 -0.757193 0.259988 0.348096 0.599762 0.305454 -0.279700 0.463423 -0.428870 -0.592901 -0.926294 0.455026 0.555587 1.939897 -0.644752 0.211874 0.873305 1.428579 -1.777159 0.825902
才 0.182825 0.779492 -0.584046 1.608688 0.701355 -0.218208 -0.100252 -0.882577 -0.337952 0.436610 0.128048 -0.190148 0.802209 0.202539 0.360741 0.406272 0.032649 1.122300 -0.676581 0.148018 0.751505 -0.469335 0.118009 0.888640 -0.483383 -0.144728 0.634773 0.565620 -0.815381 0.390272
师父 -0.215800 -0.410044 0.495674 1.065711 0.173904 1.347729 0.161866 -0.430519 -0.326739 -0.652866 0.269564 -1.351355 1.023285 1.011484 0.429185 0.122642 0.444569 -0.390421 -0.113818 0.364266 1.241868 -0.344631 -0.293967 1.027534 -1.182440 -0.519296 -0.781840 0.808790 -0.165728 0.277636
后 0.270212 -0.452857 0.406808 1.653775 0.621934 -0.017266 -0.630037 -1.076327 0.347128 -1.067343 -0.034587 -1.361879 -0.426059 1.056345 0.393127 -0.259062 -0.236870 0.097483 -1.041472 0.038476 0.855336 -0.152334 0.470782 0.793993 0.137785 0.722927 0.274874 0.902362 0.352806 -0.633613
如 1.420650 -0.242852 0.070901 0.750956 -0.440810 1.076303 -0.202057 -0.403434 -0.534915 -1.022821 0.026432 -0.301461 -1.066544 0.485604 1.007422 0.001550 -1.596721 0.029501 0.100912 -0.590979 0.960222 -0.041743 0.305121 0.418250 -0.117349 0.539809 -0.216158 0.094612 -1.806821 0.256768
地 1.336151 0.134943 0.490962 1.464715 -0.075620 0.831145 -0.288245 -0.991355 0.458383 -0.247378 0.797215 0.042741 -0.106806 0.025351 2.137981 -0.306752 -0.267462 0.389839 -0.675039 0.433300 1.134763 -0.109510 0.315178 0.052962 0.411696 0.421299 -0.439250 0.046151 -1.054920 -0.714824
心中 1.447425 -0.481686 -0.349924 2.075905 -0.967890 0.262661 -0.011116 -0.771610 -0.111354 -0.502142 0.159344 -0.979790 -0.645646 -0.957591 0.505773 0.580486 0.137060 0.449677 -0.464614 0.621303 -0.035030 -0.875853 -1.104074 0.417136 0.681149 -0.205796 0.000852 1.147717 -1.825339 0.049909
四 1.116220 -0.170628 0.171374 1.977753 0.595735 0.094186 -0.349831 -0.779233 -0.691361 -0.332100 0.057688 -0.904928 -0.104547 0.949280 0.815393 -1.119424 0.252826 0.676126 -0.088227 -0.892290 -0.053800 -0.179085 0.327065 -0.860764 -1.250389 0.110950 -0.300329 -0.062871 0.345809 1.549402
事 0.538070 0.654572 -0.402255 1.383047 -0.097614 0.973048 0.251220 -1.577821 -0.981731 0.403435 0.329403 -1.169062 0.314854 0.356071 -0.581489 1.056844 -0.260953 0.222499 -0.311635 0.203807 0.433377 -1.073976 0.507776 0.388132 -0.693478 -0.290374 -0.397743 0.536560 -1.143565 0.674098
夫人 1.143224 -0.394420 -0.408319 1.270426 1.244299 0.990574 0.924347 -0.530039 -0.504115 0.595636 0.081218 -0.587450 0.067931 0.651740 -0.299267 -0.510962 0.082990 -0.318367 -0.716627 1.098430 0.501912 -0.397182 -0.471727 0.220623 -0.763769 -1.115676 0.689052 0.894920 -0.660862 0.334298
敢 1.123204 0.118867 -0.059955 0.302230 0.712762 0.188387 0.227376 -1.006483 -0.438655 -0.244219 1.712034 -0.493957 -0.231175 0.499571 0.558040 1.333537 1.100278 0.982240 -0.701650 -0.530345 2.245289 0.087233 0.497038 0.638197 -1.222131 -0.616744 0.295720 0.383732 -0.521938 0.114428
阿朱 1.587166 -0.514636 -0.288981 1.173094 0.866103 1.230312 0.929107 -0.434307 0.390799 0.658763 -0.565285 -0.416436 0.128751 0.627486 0.476350 -0.133018 0.414190 -0.028921 -0.845856 0.015166 0.566631 0.088736 -0.600125 0.025949 -0.675096 -0.174846 -0.702276 0.788552 -1.398289 -0.342053
公子 -0.054052 0.878791 -0.829407 1.237464 0.935556 1.255393 0.312642 -1.705106 -0.372693 -0.227804 -0.478384 -0.003953 0.626689 0.492950 -0.056370 -0.643441 0.811169 0.487662 -0.941804 -0.346184 0.232031 -0.145186 -0.397945 0.220845 -0.484471 -1.253604 0.506611 0.012013 -1.369359 0.524814
如何 0.378453 0.977656 0.220228 1.165197 0.302523 0.922422 0.148777 -0.985007 -0.101553 0.629356 0.090855 -0.142787 -0.134348 -0.451330 0.424813 0.102111 0.602490 0.136894 -0.295661 -0.520027 1.126648 -0.249965 1.196324 1.015009 -1.389735 -1.102380 0.329004 -0.034793 -0.681383 0.134101
二 0.528853 -0.342118 -0.227861 1.969442 0.981034 0.260580 -0.010522 -0.418136 -0.070920 -0.318446 -0.188396 -1.275967 0.011324 0.617180 1.118184 -0.404824 1.197172 -0.100197 -0.270132 -0.845793 0.181377 -0.843647 0.229169 -0.141916 -1.173397 0.230698 -1.047881 0.052236 -0.135128 0.880218
叫道 0.721039 -0.249899 -1.238160 1.386073 0.067435 0.251470 -0.423489 -0.653824 0.637091 0.451112 0.454065 -0.333834 0.454610 0.967756 1.169979 -1.548219 -0.116971 0.490162 -0.317965 1.041690 0.958377 0.334663 -0.925216 -0.015496 -1.286629 -0.030929 -0.759032 0.955360 -1.091742 -0.982334
当 0.681783 0.478659 -0.341082 0.697953 0.129101 0.758910 0.026521 -0.912940 -0.101406 0.079219 0.999355 -0.402308 0.304048 0.085176 0.648098 0.186328 -0.515122 0.670560 -0.570992 0.056060 0.555765 -0.150643 -0.163596 1.121390 -1.345055 -0.361764 -0.212902 0.266926 -0.849835 1.414796
无 1.156556 -0.249513 0.547253 0.848670 -0.574145 -0.151452 -0.604090 -1.432403 -1.152920 0.114791 -0.019175 -1.060656 -0.391675 0.818441 1.484349 1.313641 0.189567 -0.221871 -0.400545 -1.024746 0.850618 0.328442 0.801937 0.954645 -0.076238 -0.928379 -0.326639 -0.114947 -0.319901 -0.343540
段正淳 0.832613 -0.549931 -0.535627 1.380490 1.054673 0.787590 0.379149 -0.012112 -0.337629 0.608397 0.013456 -0.866348 -0.365302 0.258028 0.411895 -0.227144 0.316108 -0.527572 -0.283900 -0.275944 0.335962 -0.079388 -0.471248 0.221862 -0.624690 -0.383812 -0.629614 1.284726 -0.626467 -0.110528
如此 -0.233251 0.388693 -0.258255 1.238894 -0.702100 0.178839 -0.657252 -1.031301 0.133178 0.285147 0.353436 -0.449972 0.489980 -0.014405 1.338784 0.021663 0.357851 0.008676 -0.323035 -0.033432 0.852667 -0.219527 0.067850 1.181049 -0.469047 -1.274651 0.653155 0.011640 -1.555510 0.700688
看 0.798647 0.013575 -0.165699 1.436228 0.654547 0.703637 0.152910 0.218293 -0.970896 -0.253094 0.474382 -0.040961 -0.233055 0.301407 0.156652 1.058784 0.215277 0.890875 -0.670424 -0.734760 0.180878 -0.277541 0.208984 -0.157421 -0.190427 -0.402199 1.036338 2.121997 -1.021524 0.545112
么 0.418179 0.587514 0.742214 1.499141 0.770860 0.717362 0.212557 -0.754607 -0.796599 0.506542 1.428212 0.003350 0.342202 0.500721 -0.031637 0.492412 0.182605 0.037826 0.062009 0.554219 0.566358 0.046635 0.722897 0.379033 -1.533796 -0.440427 -0.392050 0.351749 -1.250127 -0.096507
突然 1.501774 -0.806004 -0.662038 1.036037 0.237983 -0.264635 -0.522604 -0.993617 0.225067 0.661511 0.130866 -0.588979 -0.653228 0.708268 1.307599 -1.179983 -1.034455 0.617470 -0.132530 0.672645 1.607535 -0.196438 -0.261602 0.129413 0.063883 0.103169 0.361306 0.365248 -0.922564 -0.233732
做 -0.166532 0.128026 0.168636 0.999109 0.315535 1.846444 0.650953 -0.202025 -1.931302 -0.155590 0.760129 -0.439266 1.144465 0.712302 -1.033743 0.437947 0.146441 0.285021 -0.002515 -0.099696 0.731004 0.154338 0.056062 0.482614 -0.913486 0.921679 -0.100944 0.210438 -1.286798 0.390469
倒 0.961189 0.336973 0.007067 1.378967 -0.216052 0.101091 -0.246753 -0.182850 -1.083540 -0.928763 0.613534 -0.090009 0.584304 0.563324 1.335535 0.436288 0.352958 1.058411 0.271946 0.451776 0.315782 -1.121913 0.249097 0.465790 -0.443761 0.078041 0.026400 0.358218 -0.698761 0.349589
虽 0.357115 -1.104691 0.317686 0.788575 -0.381071 0.301726 -0.498494 -0.857354 -0.554449 -0.076802 -0.220985 -1.235021 0.323773 0.082252 1.133903 0.415729 0.918501 0.157289 -0.227755 -0.672571 -0.261327 0.281360 0.181822 1.516013 -0.210652 0.003638 0.246594 0.697571 -1.315731 0.361195
名 -0.174175 -0.599020 -0.889967 1.084395 0.114397 0.129231 -0.293254 -0.572504 -0.754349 0.216045 0.977290 -1.435100 1.734510 1.268217 1.609004 -1.274922 -0.351468 0.226224 0.251883 -1.014144 0.587249 0.087036 0.375377 -0.108900 -0.506954 1.416375 0.258963 0.820390 0.920097 1.154082
住 1.554672 -0.694085 0.023343 0.079450 1.597492 0.744296 0.025840 0.084235 -0.292274 -0.372545 0.418015 -0.166989 0.293800 -0.742824 0.871566 -0.414877 0.539060 1.674898 -0.280214 0.165707 0.443463 -0.914056 0.133905 0.926212 -0.460545 1.023201 -0.626049 0.669606 -0.891041 -0.650216
甚 0.335030 -0.209643 0.054641 1.102920 -0.921850 -0.218653 0.032891 -0.750916 -0.278957 0.250753 0.314380 -0.718114 0.116214 0.214388 0.706395 0.460648 0.545396 0.799972 -0.468742 -0.701437 -1.290458 0.037727 0.297054 0.610808 -0.556366 -0.220983 0.890598 1.574680 -1.935094 0.312838
之中 1.118374 -1.011297 0.801639 1.094461 -0.358974 0.357212 -1.044632 -1.489548 -0.665735 -0.499540 -0.083968 -1.082535 0.543350 0.252357 0.417309 -0.277511 -0.366525 0.460178 0.692361 0.052709 0.652707 -0.745673 0.217959 0.280678 0.720510 -0.148801 0.643359 0.806890 0.204832 0.078704
他们 0.036261 0.410067 0.048543 1.628275 0.395108 1.167006 -0.403969 -0.481661 -0.146984 -0.267333 -0.057200 -0.115117 0.829715 -0.453731 -0.134810 -0.041889 0.695866 0.399620 0.505065 -0.330743 1.294350 -0.244974 0.281741 0.348916 -1.286459 -0.378437 -0.488526 0.557360 -0.688790 0.214482
成 0.357637 0.114413 -0.006841 1.321200 0.426618 0.496982 -0.350163 -0.107787 -1.577761 -0.192006 0.682220 -0.605455 0.470106 -0.307199 0.084021 -0.097999 -0.561882 1.114368 -0.816711 0.279909 -0.258690 0.169244 0.929116 1.162058 -0.941720 1.600377 -0.148068 0.028790 -0.799357 0.730886
此 0.457710 0.288623 0.117134 0.769511 0.088907 0.465390 -0.433719 -2.029642 -0.163445 -0.485788 0.492623 -1.478764 -0.132221 -0.113794 0.226518 0.534643 0.336985 0.012758 -0.955480 -0.035825 0.366939 -0.538335 1.100009 0.700969 -0.721923 -0.067349 -0.566876 -0.241148 -0.747264 -0.051705
句 0.605030 -0.467478 -0.683035 1.904778 0.615638 -0.383017 0.080820 -0.743527 -0.592566 -0.296594 0.474785 -0.411597 0.019163 1.117617 0.303520 0.953797 0.468709 0.482477 0.038930 0.784174 0.558704 -1.213416 0.304710 -0.157654 0.254933 -0.074973 1.002488 0.660002 -0.739023 2.047132
里 0.013663 -0.421924 -0.031262 1.422163 -0.341532 0.201525 -1.452657 -1.416918 0.153059 -0.006335 -0.344929 -0.815808 -0.063715 1.585955 1.666431 -0.288324 -0.205164 0.598571 -0.095461 0.372532 0.454601 -0.625491 1.057969 -1.070371 0.511568 0.800523 -0.835609 0.856096 -0.861454 -1.338241
使 0.180398 -0.342197 -0.171462 0.815661 0.942071 0.270460 -1.585690 -0.252232 -0.860962 -0.627467 0.496213 -0.390535 -0.985260 0.320373 1.111602 -0.311026 -0.501934 0.342764 0.586430 -0.438912 0.665778 -0.299299 0.143726 1.657913 -0.896302 -0.746474 -0.090575 0.272596 -0.389280 1.014424
便是 -0.104023 0.144903 0.142681 1.273155 0.555383 0.645714 -0.331648 -0.459329 -0.935930 -0.285358 -0.230139 -0.831337 0.250791 0.481728 0.128193 -0.748130 -0.559640 -0.076487 0.292536 -0.529603 0.639363 -0.420997 -0.438379 0.704646 -0.718419 -1.044280 0.364007 0.307705 -0.862815 0.109183
请 0.246315 1.148793 -0.442542 0.472522 0.600617 1.494724 0.329070 -1.505733 -0.272064 -0.361059 -0.030326 -0.317784 0.571945 1.728734 -0.334508 0.353100 0.284703 1.247135 -1.142015 -0.445662 1.114395 -0.026552 -0.309346 -0.337366 -1.449801 -0.908427 -0.126475 0.790205 0.387682 0.641192
若 0.098918 0.202618 -0.680465 0.625200 -0.147672 0.933881 -0.251355 -0.689189 -0.603344 -0.759811 -0.265838 -0.909239 0.036593 0.426519 0.291581 0.551371 -0.135851 0.135886 -0.016029 -0.252926 1.338769 -0.546060 0.437642 0.927668 -0.846922 -0.105454 -0.204941 0.172381 -1.116617 0.799699
真 0.195100 0.962452 0.083751 0.988493 -0.158123 0.424702 -0.243147 -0.641332 -0.542282 -0.004001 1.075425 -0.074244 0.568421 0.042901 0.844748 0.563402 -0.110905 0.971436 -0.144845 0.153154 0.270524 -0.568750 -0.385909 1.203440 -1.157288 -0.443192 -0.133988 -0.280724 -1.633549 0.932177
只见 1.787769 -0.741100 0.204212 1.305975 0.582842 0.684536 -0.037567 -0.386126 -0.497069 0.743273 0.187824 -0.529430 -0.130565 0.410498 1.198492 -0.758495 -0.422515 0.744100 -0.558731 -1.259169 0.042784 0.191951 0.172739 -0.925186 0.458681 0.501311 0.555867 1.731159 -0.161599 -0.043357
见到 0.804728 -0.440386 -0.130055 1.868975 0.230772 0.882389 0.090026 -0.436136 -0.483346 0.373158 -0.395645 -0.932148 0.356691 -0.086940 0.759575 -0.126190 -0.244047 -0.769697 -0.309576 -0.009315 1.195294 -0.429839 -0.250102 -0.138285 0.431043 -0.622169 -0.010360 0.426157 -0.641376 0.755978
童姥 0.509978 -0.131391 -0.236183 1.193335 0.906994 0.551176 -0.110641 -0.473533 -0.006821 0.549711 -0.054437 -0.856508 -0.157008 0.359615 0.339207 -0.700387 -0.044441 -0.667497 -0.734499 0.242397 0.240841 0.050793 0.237348 1.001544 -0.966280 -0.956501 0.155880 1.043134 -0.555164 -0.470399
竟 0.914572 -0.172562 0.270075 0.934576 0.153486 0.383920 -0.806759 -0.842699 -0.666434 0.250432 0.296316 -0.542166 0.175559 -0.149676 1.567324 0.227376 -0.383145 -0.051949 0.374474 -0.479740 1.530396 -0.404899 0.764981 1.088076 0.087235 -0.273724 0.037660 -0.400056 -1.031217 0.227329
弟子 -0.203272 -0.428636 -0.581367 0.877995 -0.822135 0.779353 -0.561175 -0.286694 -1.247672 -0.430922 1.405241 -1.512320 1.059547 0.725552 1.662068 -0.500005 0.494485 -0.233873 0.582132 -0.040131 1.173004 0.275860 0.088701 0.805705 -1.082836 0.604598 -0.474685 0.566907 1.029413 0.413641
少 -0.955151 0.032232 -0.017589 0.647374 -1.046884 1.449673 -0.800161 -0.737676 -0.656756 -0.617563 0.824488 -0.964020 0.188379 1.355373 1.238977 0.387960 0.702614 0.006134 0.896965 -0.703375 0.537253 0.073971 0.629949 0.619542 -0.492742 0.260482 0.581006 1.532261 -0.208943 0.135023
于 -0.167143 -0.140570 0.233332 0.849607 -0.367164 0.730075 -0.638628 -1.806530 0.017507 -0.940818 0.272953 -1.753642 -0.204895 -0.427551 0.461857 0.109237 -0.042515 -0.520877 -0.156447 -0.482414 0.855469 -0.368807 0.004304 1.221688 -0.042051 -0.453955 -0.681683 -0.265080 0.020370 0.448719
位 0.284726 0.531077 -0.097346 0.905573 -0.035019 1.409443 -0.026006 -1.614645 -1.040603 -0.143824 -0.688131 -0.860753 0.010191 1.872439 0.185589 -0.394905 0.486051 0.796590 -0.370449 -0.598990 0.217135 -0.102433 0.063776 -0.483688 -1.409947 -0.583573 -0.126721 -0.465612 0.435698 1.697889
快 -0.221368 0.135848 -0.229955 1.101427 0.111327 0.181888 -0.580260 -0.263124 0.602073 -0.737480 -0.120358 0.296638 0.598469 0.923537 -0.001551 -0.269860 -0.728558 1.363298 -0.864759 0.055346 0.657474 0.747653 -0.023255 0.837731 -1.449683 0.227456 -0.492002 1.519908 -1.667467 -0.427677
木婉清 1.307184 -0.718676 -0.292005 1.412972 0.808108 0.374299 -0.024409 -0.089725 0.427632 0.363888 0.069614 -0.362092 -0.521029 0.204275 0.904239 -0.542693 0.500456 -0.300268 0.032631 0.207369 0.509277 0.041886 -0.261743 0.108037 -0.351937 -0.328380 -0.412100 1.235052 -0.531055 -0.629165
只是 0.780139 -0.387320 0.245730 0.785312 0.014915 0.552073 -0.045700 -0.651854 -0.221961 -0.206941 0.120693 -0.750931 -0.092510 -0.174476 0.389564 0.646763 0.453115 0.329096 -0.143539 -0.320965 0.680971 -0.432995 -0.072622 0.644588 -0.087674 -0.439656 0.147729 0.843909 -1.072432 0.254196
我们 -0.136263 0.344447 0.126731 1.708877 0.664979 1.053470 0.157053 -0.755190 -0.674082 -0.893546 -0.135344 -0.454512 1.079675 0.354269 -0.408378 0.032043 0.602581 0.628861 -0.274285 -0.352585 0.679775 -0.385325 -0.446036 -0.015718 -0.721128 -0.380395 -0.319749 0.194817 -0.367255 0.854766
年 -1.524623 -0.399288 0.635466 1.860276 0.031906 0.995397 -1.500631 -1.637497 -1.087017 -0.826115 -0.082397 -1.429735 0.880151 1.230424 0.755896 0.355915 0.331578 0.671853 -0.518947 -0.281944 0.350338 -0.465163 0.329404 0.074955 0.940584 0.535900 -0.143424 0.299945 -0.014602 0.247598
用 0.408757 0.499686 0.510210 0.695295 0.981770 1.100133 -0.322483 -0.232212 -0.606162 -0.426522 0.628529 -0.432860 -0.488785 0.452859 -0.123757 1.048431 -0.732174 0.599702 -0.242143 -0.052489 0.355533 -0.378367 0.399183 1.057484 -0.998670 0.236332 -0.503761 0.476152 -0.534315 0.743686
南海 0.735335 -0.719125 -0.190236 0.995765 1.175799 0.587291 -0.295328 0.189844 -0.368169 0.187909 0.608212 -0.170207 -0.505782 0.238425 0.597577 -1.263719 0.559960 -0.226509 0.085867 0.543326 0.051973 0.654768 -0.082924 1.015829 -1.484330 -0.412077 -0.363918 1.150568 -0.510158 -0.125444
声音 1.053458 -0.562462 0.494446 1.238048 -0.388931 -0.444412 -0.240526 -0.707072 0.895607 0.810155 0.486655 0.083252 0.677770 1.326687 1.623945 -0.949257 -0.110729 0.468765 0.933890 0.526208 0.527634 0.143047 -0.081498 0.382361 -0.687085 -0.597284 1.735936 1.134747 -1.266705 -0.110438
倘若 -0.018455 0.490956 -0.301291 1.086071 0.016936 0.963490 -0.132507 -0.755374 -0.457948 -0.108762 0.157222 -0.581625 0.541015 -0.306396 0.390832 0.210887 0.136578 -0.019863 -0.365443 0.146738 1.092400 -0.231618 0.013817 1.169642 -0.760457 -0.319712 -0.051359 -0.179448 -0.873206 0.463569
间 1.490359 -0.593264 -0.130446 1.380659 -0.172411 -0.811967 -0.936293 -1.289916 -0.124784 0.486904 -0.497135 -0.592093 -0.747332 0.541027 0.998249 -0.851985 -1.193628 0.785119 -0.630533 -0.131577 1.097708 -0.113985 -0.052503 0.129150 0.651256 -0.008061 0.547313 0.009837 -0.724644 -0.187420
段 -0.065637 0.472562 -0.732920 1.155145 1.555825 0.771737 0.223816 -1.075359 -0.639237 0.324982 -0.785763 -0.394271 0.108349 0.650462 -0.077146 -0.630033 0.281192 0.622832 -1.631923 0.547399 -0.451841 -0.672262 -0.640019 0.026976 -0.270367 -1.193823 0.066786 0.262855 -1.491932 0.264666
游坦 1.241857 -0.386912 -0.409685 0.726818 0.458789 0.257524 0.419226 -0.676251 0.236662 0.228430 0.386847 -0.964658 0.111783 0.191123 0.401001 -0.447657 -0.758462 -0.453979 -0.577587 -0.157955 -0.108464 0.067418 0.613525 0.626609 -0.876180 0.275946 -0.440487 1.291584 -0.825998 -0.375088
怎么 0.326200 0.609182 0.591027 1.358485 0.817642 1.264781 -0.154373 -0.670063 -0.756219 0.473590 0.727173 0.342936 0.508520 0.275511 0.511122 0.045589 0.080747 0.214836 -0.167736 1.132949 1.136086 -0.312558 0.219954 0.153037 -0.857586 -0.573016 -0.428082 -0.174080 -1.521481 -0.549327
被 1.158791 -0.550730 -0.364084 1.464870 0.695764 0.968146 -0.707604 0.205634 -0.779725 -0.658261 -0.486450 -0.605287 -0.035987 -1.318799 0.704940 -1.287803 -0.155216 -0.490155 0.049491 -0.270609 0.230014 -0.144193 0.539350 1.605586 -0.227004 0.366026 -0.006055 0.649558 0.116793 0.277203
内力 0.044054 -0.936871 -0.174784 0.393008 -0.007778 -0.435058 -1.704680 -0.090553 0.422555 0.175185 -0.523319 -1.413299 -0.686568 -0.232750 0.999464 0.577662 -0.262652 0.100859 -0.379520 -1.235570 0.688748 0.682876 0.306606 2.711380 -0.878503 -0.015349 -0.172346 0.681259 -0.444998 0.292984
丐帮 -0.064467 -0.411734 -0.632160 1.263177 -0.495052 0.870021 -0.585261 -1.238917 -1.778224 -0.230103 0.200875 -1.473878 1.326979 0.216229 -0.052729 -0.816386 0.572188 -0.128798 0.686889 -0.678780 0.636920 0.471794 -0.002988 -0.022245 -0.652092 -0.555644 -0.146635 0.855705 0.651870 0.503008
心想 0.587494 0.042646 -0.735740 1.292059 -0.116781 0.318341 -0.064529 -0.645738 -0.341795 0.186795 0.257469 -0.697821 -0.109520 -0.057370 0.821290 0.111154 0.287051 0.104241 -0.489102 0.136791 0.266539 -0.425403 -0.648880 0.429455 -0.235183 -0.821208 0.016185 0.575631 -1.256106 0.138089
身子 1.392827 -0.488454 -0.296932 0.480478 0.134865 0.186695 -0.159021 0.373693 0.352044 0.091556 -0.939821 -0.185065 0.003742 0.323801 1.923108 -0.198012 -0.863953 0.899859 -1.505643 0.064638 1.115132 -0.340871 0.188928 0.977097 0.078045 0.334941 0.007666 0.839292 -0.661714 -0.558055
众人 1.163631 -0.133176 -1.339348 1.977355 -0.542093 -0.283099 -0.229801 -0.991239 -0.125762 0.477186 0.356614 -0.509136 0.406515 -0.660722 0.315165 -0.544222 0.440003 0.447945 0.197930 -0.837989 0.678925 0.317672 0.322078 -0.552324 -0.097075 0.159953 0.575357 1.475032 0.086281 0.618955
这个 0.310069 -0.262475 1.256347 1.045990 0.510720 0.459210 0.088193 -0.185684 -1.071760 -0.264565 -0.016796 -0.598793 0.073009 0.537812 0.063979 0.035526 -0.693211 0.626693 -0.440172 0.442431 0.467195 -0.347630 -1.302072 0.819024 -0.745180 -1.503010 -0.203751 -0.136255 -1.208833 0.034104
鳄神 0.774938 -0.736767 -0.382170 0.935553 1.233808 0.616660 -0.240168 0.493277 -0.082812 0.340478 0.705449 -0.099053 -0.711535 0.091395 0.777050 -1.372497 0.563457 -0.139819 -0.027882 0.769804 0.038548 0.735663 -0.171468 1.000460 -1.688271 -0.273470 -0.388213 1.038192 -0.436246 -0.119255
既 -0.064936 -0.004179 -0.390246 0.802257 -0.314756 0.869989 -0.423681 -0.753062 -0.834279 -0.318984 0.191544 -1.116661 -0.110471 -0.202567 0.675278 0.372168 0.822060 0.018638 -0.623525 -0.279326 0.020138 -0.228880 -0.067405 1.022212 -0.266613 -0.230896 0.252369 0.218482 -1.403980 -0.085807
之间 1.607316 -1.055329 0.103268 1.471967 0.056657 -0.560661 -1.007826 -1.369204 -0.562592 0.301178 -0.754878 -0.863477 -0.611904 -0.225408 1.083553 -0.658491 -0.507826 0.356898 -0.448810 -0.338611 1.561974 -0.107244 0.132193 0.184956 0.508940 -0.041808 -0.378256 -0.754627 -0.627442 -0.026444
字 1.043024 -0.438089 0.785131 2.168970 1.657292 -0.494503 -0.483570 -1.143565 -0.918852 -0.542652 0.512540 -0.586237 -0.947860 0.345482 0.321476 -0.310028 0.176835 1.032472 -0.125851 -0.042843 -0.582130 -0.725889 -0.393311 -0.341798 -0.099060 -0.186740 0.434064 -0.456547 -0.856039 1.199659
条 0.977414 0.259959 0.381610 1.021459 -0.019466 0.304649 -0.503749 0.450089 -1.197933 0.781358 -0.322963 -0.403358 0.355453 0.741651 1.765326 -0.374274 -2.054908 0.255836 -0.450985 -1.035838 -0.151599 -0.220777 1.094158 0.064615 -0.457323 1.054195 -0.521545 0.163457 -0.445160 0.467260
兄弟 0.216138 0.185374 -0.499545 0.852684 -0.318580 1.092326 0.742879 -1.135528 -0.694538 -0.116938 -0.810086 -1.439559 1.338298 0.543337 -0.113864 -0.188805 1.000542 0.476774 -0.998183 -0.350524 -0.030933 -0.080603 -0.143823 -0.456190 -1.606759 -0.636506 -1.088868 0.050825 -0.363063 1.040997
王 1.036269 -0.338002 -0.017461 1.375224 1.134743 1.142888 1.035447 -0.849420 -0.597952 0.183586 -0.175222 -0.436125 0.333426 0.552268 -0.666119 -0.676873 -0.006889 -0.206792 -0.460269 0.506919 0.217271 -0.112980 -1.130594 0.074079 -0.580401 -0.840614 0.211612 0.457073 -1.409000 0.512557
越 -0.711529 -0.660278 0.168481 1.136204 -0.744444 -0.321993 -0.865821 0.446293 0.493404 -0.859470 0.162222 -0.130544 -0.055059 0.330937 0.350329 0.195896 0.475050 1.110657 -0.683273 0.119154 -0.333188 0.983328 0.811923 0.188505 -0.733780 1.126577 0.575083 2.000430 -1.798389 -0.076116
听得 1.192959 -1.253075 -1.070188 1.169826 0.064294 -0.244838 -0.130897 -1.104838 0.618981 0.287916 -0.702639 -0.118163 0.053282 1.352019 0.431115 -1.217378 0.161990 -0.105287 0.619044 0.728848 0.362985 0.285819 0.407054 -0.305315 0.014367 0.269681 1.133646 1.298294 -1.240503 0.364769
这么 0.289225 -0.399678 0.549781 0.982523 -0.195806 0.368851 -0.244799 0.048523 -0.045432 -0.363225 -0.337448 -0.174821 0.721456 0.451993 0.755463 0.757148 0.142793 1.160681 -0.036518 0.803345 0.353902 -0.450125 0.466808 0.384795 -0.784301 0.128359 0.166314 0.776920 -1.563939 0.918583
原来 0.389283 -0.081266 -0.480120 1.155726 0.290022 0.676509 -0.500577 -0.866147 -0.654952 0.166475 0.202538 -0.572266 0.397658 -0.023886 0.559712 -0.781509 -0.344756 0.017774 0.230377 0.119431 0.217358 -0.521354 -0.717671 0.376166 -0.131036 -0.766782 -0.107732 0.788479 -1.009473 -0.200958
尚 -0.052117 -0.411614 0.391800 0.361724 0.336750 0.761344 0.108046 -0.416207 -0.602957 -0.154134 -0.392892 -0.935003 0.840267 1.247901 1.026596 0.033860 0.770670 0.467468 -0.247687 -0.534121 0.115135 -0.319651 0.221389 0.203254 -0.918154 -0.558498 -0.028524 0.246426 -1.188308 0.322356
吧 0.053453 0.865701 -0.329447 1.046925 0.894768 0.310135 -0.182108 -0.018480 -0.685165 -0.370656 0.315395 0.567143 0.876887 0.958666 -0.518681 0.245073 -0.716787 1.696732 -0.591726 0.087066 0.853978 0.146346 -0.176836 -0.178383 -1.720777 -0.459752 -0.784526 1.176699 -0.553551 -0.099204
这些 -0.140763 -0.104804 0.155074 1.612099 -0.423891 1.108037 -0.621576 -1.009107 -0.657906 0.340631 0.741204 -0.417956 1.260296 0.015877 0.056688 0.298974 0.334010 0.047795 0.803625 -0.168855 0.636058 0.077454 -0.212412 0.322707 -0.007981 0.404780 -0.029036 0.696242 -0.355103 0.653923
吃 0.921249 0.604926 0.021395 2.379241 0.292903 0.773698 -0.240009 0.460604 -0.710588 0.926049 0.247558 0.734760 0.244563 0.470562 0.148159 1.034526 -0.544579 -0.257664 -0.874340 0.558582 0.650777 0.559181 0.385559 -0.232669 -0.430676 0.512934 -0.483375 0.773759 -0.527109 0.725366
步 0.302258 -0.081928 -0.981869 1.453736 1.000001 -0.856512 -0.944930 -0.620079 -0.426401 -0.645885 0.050972 -0.464492 -0.857294 0.793818 1.040942 -0.230791 -0.117393 1.733705 -1.796263 -0.090074 0.544796 -0.736248 0.239929 -0.052216 0.103365 0.245430 0.163766 0.530618 0.124464 0.567689
起来 1.407614 -0.091235 -0.482255 1.636319 -0.327973 -0.205139 -0.059233 -0.214168 0.300380 -0.293629 0.486149 -0.207309 0.817006 -0.209701 0.351016 -0.496504 -0.123888 1.081290 -0.370221 0.821509 0.747028 0.249194 -0.434446 0.181372 -0.879391 1.099344 -0.271840 0.664736 -0.660781 0.015939
太 -0.288262 -0.925092 1.247319 0.907565 -0.330671 -0.215025 -0.444215 -0.362981 -0.735368 -0.424335 -0.055536 -0.782064 0.382251 1.986491 -0.039446 1.350824 0.622562 0.930573 -0.918581 0.496419 -0.239330 0.387794 -0.238690 1.727855 -0.772713 -0.103497 -0.054457 1.145217 -0.909470 0.007648
问 0.241609 0.529049 -0.634488 1.767975 1.054857 0.562759 0.537512 -0.320630 -0.021176 -0.281085 0.769601 -0.343995 -0.124069 0.855909 0.135321 0.739771 0.872553 0.288963 -0.183285 0.700247 0.907258 -1.176273 -0.124257 -0.399999 -0.873872 -0.155780 0.613034 0.849849 -0.842922 0.757994
脸上 2.317098 -0.868002 0.014224 1.407573 -0.427056 0.840681 0.507373 -0.012911 -0.467073 1.897366 -0.128407 -0.528030 -0.569241 -0.423662 0.826782 0.545127 -0.456992 -0.396580 -0.478752 -0.012167 0.484838 0.382925 -0.322784 -0.000641 0.707191 0.557033 0.213924 1.264225 -0.882660 0.274660
大师 -0.171230 -0.097548 -0.547134 0.073639 0.024679 1.782747 0.304886 -0.998386 -0.036682 0.183929 -0.652047 -1.657511 -0.643204 1.248344 0.647751 0.116926 1.676590 -0.784211 -0.471491 0.360211 -0.063333 -0.524164 0.031588 0.300978 -1.013066 -1.025798 -0.473761 1.044852 0.446788 0.204041
先生 0.247095 0.904750 -0.266510 1.219984 0.538768 1.071044 -0.833386 -1.061210 -0.468175 -1.016357 -0.009498 -0.037271 -1.127037 0.332638 1.135040 -0.569077 1.487991 0.141908 -0.576607 0.699464 0.338695 -0.268490 -0.371107 0.423373 -0.830742 -2.426187 0.046246 0.006999 0.648628 0.604673
包 1.568734 0.404746 -0.471244 1.214779 0.437692 0.728883 -0.556067 -0.351726 -0.056492 -0.130708 -0.528665 0.147914 -1.073174 0.567102 1.249632 -0.537773 1.450271 0.605591 0.157364 -0.070269 -0.045925 -0.391023 -0.578191 0.058960 -1.508696 -1.141674 -1.145188 0.116893 0.118325 0.649673
女子 0.391255 -0.495869 0.588907 1.075803 0.377529 0.174226 0.243521 -0.159510 -0.077638 0.394977 0.457162 -0.430740 1.187087 0.683786 1.577007 -1.680966 -0.332525 0.299549 0.410140 -0.345447 0.335740 -0.087540 -0.481305 0.044135 -0.777860 -0.111766 1.033588 -0.038843 -1.082750 0.545266
段誉道 0.408476 0.692534 0.470443 0.956509 0.611253 1.088730 -0.119787 -0.757251 -0.770051 0.058402 0.531320 -0.029854 0.067641 0.583276 -0.072810 0.017497 0.063315 0.773294 0.003070 0.856526 0.012200 -0.335158 -0.278755 -0.009894 -1.309426 -0.894011 -0.416443 0.472556 -1.210560 -0.549332
并 1.178675 -0.919568 0.077562 0.209530 0.370098 0.127116 -0.066388 -1.399220 -1.154301 0.197396 0.349601 -0.777360 0.266501 0.555437 0.531903 0.933790 1.028582 0.125646 -0.120704 -0.772437 0.558639 0.207005 0.789451 0.669709 0.161903 -0.204094 0.100107 0.154962 -0.744507 0.252407
自 0.613836 -0.147569 -0.337439 0.625011 -0.761606 0.477450 -0.055966 -0.476633 -0.882369 -0.822565 0.469011 -0.541410 -0.427163 0.014385 0.385180 0.218908 0.376401 0.490307 0.338662 -1.084869 0.260345 0.295240 -0.089795 0.601504 -0.150356 0.119526 0.377620 1.032156 -0.821669 -0.302758
这里 0.703786 0.343497 0.113486 1.413600 0.437364 1.321528 -0.307678 -1.736139 -0.002863 0.419301 -0.003781 -0.033407 0.548418 0.377508 0.028246 0.154970 0.411983 0.785484 -0.039899 0.789695 0.849754 -0.690664 0.081314 -0.844381 0.194106 0.048188 -0.473596 0.414896 -0.943621 -0.440839
你们 -0.096418 0.836735 -0.041999 1.442451 0.421471 0.977312 -0.230860 -0.727314 -0.496239 -0.245536 0.060398 0.035506 1.450320 0.436274 0.005696 -0.450443 0.243638 0.819636 0.258148 -0.069877 1.341217 -0.137123 -0.066113 -0.232232 -1.413235 -0.257358 -0.794697 -0.031900 -0.529268 0.251730
十 -0.892504 -0.359727 0.339379 1.998858 0.000338 0.239227 -1.230886 -0.439709 -0.178204 -0.305156 -0.179425 -1.064770 0.402106 1.335732 1.206335 0.320017 0.036963 0.648811 -0.395709 -0.166770 -0.206389 -0.225074 0.656271 -0.159939 0.032093 1.345627 -0.132317 0.692266 -0.126415 0.686750
丁春秋 0.323316 -0.480110 -0.902604 0.749932 0.675143 0.130626 -0.060670 -0.130743 -0.128021 0.245730 0.581667 -0.945406 0.104354 -0.103362 1.237888 -0.816132 0.405952 -1.047827 -0.386371 0.048104 0.547412 0.012828 0.440598 1.247863 -0.788005 -0.604471 0.127591 0.866922 0.209071 0.405729
还是 -0.124963 0.668628 0.214665 1.078002 0.146891 1.036981 0.528369 -0.215980 -0.300665 -0.509141 0.215445 -0.068160 0.960315 -0.226539 -0.249879 0.096429 -0.022956 0.875848 -0.337789 -0.622523 0.558236 -0.117820 -0.251156 0.013330 -0.964445 0.022035 -0.036162 0.537947 -1.168898 0.310023
很 0.115426 0.265508 0.359442 1.276082 -0.755592 0.826052 0.043654 -0.415122 -0.495134 -0.150347 -0.087024 0.661742 1.293583 0.177783 0.369818 0.154635 0.816358 1.095608 0.344609 1.272680 -1.189946 -0.074094 0.016679 0.376244 -0.963479 -0.291615 0.380131 0.952003 -2.474213 0.264175
怎 -0.045070 0.293702 0.549514 0.865714 0.554121 1.367415 0.070371 -0.729609 -0.062807 -0.244227 0.958516 0.166295 0.125214 -0.004601 0.820563 0.233414 0.306305 -0.111626 -0.036066 0.888038 1.621041 -0.223755 0.423812 0.721437 -0.720078 -0.222843 -0.067299 -0.628091 -1.689282 0.153632
身上 1.177533 -0.427510 0.475240 1.051725 0.395422 1.124822 -0.677178 -0.224905 0.128941 0.137966 -0.695169 -0.641336 0.133378 -0.828909 0.737633 -0.477745 -0.472735 -0.149077 0.262596 -0.016949 0.406597 -0.605762 0.187585 1.079200 -0.328955 -0.167267 -0.544621 0.421535 -0.271503 0.159661
复 1.032487 -0.056079 -1.624091 1.220441 0.748814 0.634926 -0.540577 -1.139992 0.168337 -0.317984 -0.290903 0.028962 -1.169117 -0.497291 0.864585 -0.776900 0.978600 -0.229581 -0.327851 -0.197350 0.288136 -0.015338 0.294722 0.965638 -0.198950 -0.803114 0.328772 0.625192 -0.465582 0.698670
让 0.332206 0.195944 0.199562 0.964266 0.591186 0.716191 -0.391710 -0.440383 -0.159534 -0.669481 -0.059871 -0.013028 0.444794 -0.043870 0.063021 0.524769 0.059060 1.160509 -0.579520 -0.240419 1.360637 -0.065230 0.378187 0.279374 -0.958514 -0.418307 -0.510623 0.472477 -0.415408 0.417776
马 0.511786 -0.709446 -0.181488 0.449095 0.805216 0.979162 0.361856 -0.601493 -0.655935 0.921216 -0.268107 -0.975005 0.730584 0.960561 -0.226732 -0.526266 0.250366 -0.078806 -0.571966 0.583059 -0.053040 0.204260 0.520404 -0.190321 -0.873655 -0.323458 0.286568 1.129552 0.028915 0.416417
说话 1.144207 -0.974677 0.317640 1.076757 -0.083341 -0.402509 0.004635 -0.679845 0.427140 0.130186 0.173311 -0.372322 0.129303 0.486796 0.695623 0.350498 0.602062 0.456403 0.644187 0.044723 1.666247 0.125183 -0.211450 0.426753 -0.628827 -0.641874 0.321103 0.434866 -1.429231 0.167050
连 0.503452 -0.454154 -0.005989 1.658453 0.472411 -0.317474 -0.580959 0.279673 -0.443263 -0.882271 0.271114 -0.222789 -0.034692 0.464247 1.242542 0.255178 0.095512 0.532987 0.341550 0.162860 0.831273 -0.682794 0.001242 0.427065 -0.641139 0.141979 -0.845234 0.013476 -0.296889 0.556206
今日 -0.291317 0.628482 -0.559344 0.698344 -0.600359 0.724421 -0.056334 -1.464869 -0.487802 -0.838917 -0.391463 -1.138798 0.421828 0.053601 -0.100468 0.456500 -0.164509 0.338220 -0.900918 -0.209907 1.070329 -0.642192 0.059261 0.290749 -0.246021 -0.901096 -0.155680 0.106996 -0.706343 0.368070
余 -1.192781 -0.451845 -0.350834 1.859723 -0.280377 -0.076937 -1.480917 -1.145194 -0.092252 0.183872 0.350315 -1.683682 0.658080 1.181327 1.696240 -0.181939 -0.178389 0.163989 -0.684216 -0.611743 -0.169240 -0.257067 0.988798 -0.199714 0.581958 1.608546 -0.424547 0.579979 0.060834 0.163771
头 0.586780 -0.161042 0.503752 1.912572 0.973683 1.376638 0.133179 0.392187 0.236961 -0.513089 0.888598 0.697120 -0.303230 1.115329 0.811011 -0.001462 -0.741956 0.364393 -0.489746 -0.360349 0.320785 0.375226 -0.799324 0.216598 0.654192 1.143115 0.574799 1.524753 -0.403307 0.404264
站 1.693124 -0.276828 -0.278330 0.688792 0.694140 0.502643 0.690453 -0.768708 0.519877 0.017368 0.884209 -0.659283 0.768647 0.135217 1.157962 -0.420706 0.328833 1.530493 -0.559224 -0.743256 0.904904 -0.284656 -0.670328 -0.427343 0.049626 1.040637 0.124357 1.195518 0.083727 -0.093054
之后 -0.160594 -0.124804 -0.183128 1.358193 0.405524 0.496527 -0.453272 -0.461168 -0.416613 -0.484381 -0.633820 -0.732857 0.467936 0.039501 0.091617 -0.016306 -0.297094 -0.108206 -0.990356 -0.135587 1.016135 -0.367348 0.452929 0.508701 0.162597 -0.015831 -0.199222 0.374076 -0.099143 0.014134
手 0.467690 -0.865454 0.207677 0.274242 1.133017 0.522818 -0.175111 -0.203918 -0.141068 -0.533221 0.628710 -0.712801 -0.328291 0.474967 0.613022 0.341475 -0.618602 0.940067 -0.987807 -0.101719 -0.127703 -0.089460 -0.493650 1.600075 -0.369828 0.516929 -0.676586 1.218073 -0.599475 0.361173
跟着 1.005393 -0.183742 -0.996510 1.029988 0.430663 0.388142 -1.008505 -0.345504 0.309160 -0.113691 -0.652446 0.117701 -0.560753 0.416652 0.782416 -0.963194 -0.688722 0.770765 0.257936 0.270654 0.901654 -0.147635 0.348760 0.306859 -0.415532 0.520829 0.158659 0.993986 -0.021298 -0.011542
功夫 -0.726659 0.052043 0.278865 0.573394 0.011881 0.789152 -1.987198 -0.561712 -1.271128 0.008892 0.673690 -0.145679 -0.586918 0.372386 0.639904 0.850851 -0.396261 0.512162 0.651623 0.649499 -0.323965 -0.005755 0.546940 2.137949 -0.445877 -0.663959 0.040050 0.914050 -0.371454 0.951692
有人 0.502795 -0.076678 -0.718976 0.771615 -0.570465 0.574586 -0.608738 -1.486138 0.768695 0.308076 0.559628 -0.261208 0.474766 0.445146 0.956970 -0.458445 -0.080488 0.045870 0.428569 0.962749 1.769098 -0.005066 0.432654 0.098020 -0.253551 0.439337 0.723091 0.284978 -0.646138 0.051805
可是 -0.085286 -0.168151 0.254939 1.009749 0.330370 0.420528 -0.197495 -0.402389 -0.714927 -0.523146 -0.160060 -0.427438 0.139823 0.240249 0.187917 0.411206 0.064360 0.408647 0.276721 0.171550 0.540843 -0.732116 -0.014065 0.606736 -0.326525 -0.500047 -0.034154 0.331698 -1.255242 0.092824
仍 0.946633 -0.796593 0.224362 0.584970 0.465296 0.219068 -0.007482 -0.238575 -0.144809 0.096170 0.447566 -0.533092 0.203470 -0.652657 1.196299 -0.118921 0.560311 0.557476 -0.016859 -0.625112 0.205243 -0.165745 -0.073444 0.959386 -0.069336 0.010126 0.162574 0.706439 -1.010376 0.204455
大理 -0.331036 -0.122048 -0.301146 0.114381 0.679372 1.783100 -0.262428 -2.276471 -0.661147 -0.597162 0.621271 -1.049691 0.631543 0.363150 -0.759615 -0.550650 0.595866 0.646693 0.766232 -1.245681 0.784843 -0.219045 -0.326433 0.600946 -0.411273 0.095683 -0.409072 0.808976 -0.021323 -0.296360
啦 -0.024030 0.744371 0.173722 1.604489 0.906599 0.825285 -0.516279 -0.127483 -0.730856 -0.099420 0.614841 0.729548 0.802410 0.377045 -0.264463 0.265293 -0.130726 1.223156 -0.862809 0.719348 0.440883 0.446176 0.096298 -0.208854 -1.018572 0.154705 -1.244940 0.727085 -1.039667 -0.627500
不同 1.999623 0.002214 -0.305547 0.963060 0.023199 0.403643 -0.465314 -0.145407 -0.150328 0.545465 -0.503906 0.089712 -1.028219 0.392483 1.447330 -0.364977 1.202636 0.443588 0.407439 -0.461958 -0.058518 -0.120720 -0.600845 0.475417 -1.541492 -1.161655 -0.869117 0.095660 -0.116093 0.674311
鸠摩智 0.659648 -0.685878 -1.297032 0.496808 1.058050 0.285675 -0.571726 -0.530233 -0.148554 0.785665 -0.188904 -0.486663 -0.680052 0.269153 1.076565 -0.234074 0.859286 -0.178880 -0.105567 -0.503274 0.010081 -0.236079 0.313281 1.058091 -0.096819 -0.226023 -0.004851 0.981855 -0.157611 0.261621
觉 1.620955 -0.805892 -0.580522 1.145557 -0.813069 -0.465142 -0.805028 -0.176573 -0.280856 -0.067530 -0.931327 -0.500089 -0.989812 -0.177365 0.988904 0.908856 -0.150965 0.524655 0.419199 -0.248764 0.107686 -0.478311 0.455976 0.651088 0.353349 0.593835 0.091375 1.038426 -1.644872 -0.117211
问道 1.024405 0.309274 -0.431073 1.189485 0.449516 0.661442 0.523747 -0.926429 -0.093863 1.118473 1.280676 -0.387504 -0.076893 0.515377 0.561596 -0.492395 0.235571 0.298812 -0.424250 1.276836 0.540857 -0.392649 -0.936671 -0.446295 -0.588450 -0.676318 0.192419 0.746239 -1.023295 -0.728687
一般 1.460114 -0.080185 -0.080610 0.701192 -0.656199 0.689522 -0.225767 -0.507248 -0.816454 -0.531018 -0.976011 0.280136 -0.104508 0.292051 0.676832 -0.209198 -0.697608 0.656840 1.013809 -1.305067 0.935633 0.242702 -0.288213 0.066935 -0.159233 0.063435 -0.473858 -0.102764 -1.535948 0.067574
过去 0.331200 -0.263215 -1.152336 0.940310 0.925075 0.052878 -0.741045 -0.041777 0.434557 0.003109 -0.718069 0.069377 0.479856 0.235303 0.823033 -0.301677 -0.879328 1.044898 -0.579388 -0.416127 1.149523 -0.333891 0.066470 0.258936 -0.029838 0.224783 0.138253 1.369813 -0.265314 0.013391
放 1.063776 -0.352922 0.602203 -0.048680 0.624762 1.722916 -0.104665 -0.703768 -0.393956 -0.267528 0.167789 -0.386839 1.562032 0.495899 0.551516 0.738784 -0.214139 0.863173 -0.590042 0.627464 1.076269 -0.296189 0.058476 0.434226 -0.218152 0.506237 -1.109853 0.697297 -0.459568 -0.689354
知 0.245035 -0.213409 -0.410265 1.011076 -0.012438 0.775024 -0.493309 -0.932160 -0.590289 0.242987 0.311842 -0.959945 -0.179204 -0.635530 0.969477 0.029391 0.524467 -0.526367 0.392816 -0.259650 0.242198 -0.411746 0.285722 0.902695 0.003188 -0.295508 0.216990 0.070317 -1.304331 0.316878
即 1.024538 0.319100 -1.323830 1.025091 -0.297278 -0.395137 -0.328908 -0.641551 -0.202001 -0.599444 0.016467 -0.685027 -0.353957 -0.001642 0.375991 0.234765 -0.087968 1.018819 -0.789959 -0.596979 1.229499 0.143101 -0.525651 0.381499 -0.069861 0.451117 -0.355262 0.300498 0.298552 -0.326787
算 0.224759 0.026883 0.409116 1.179888 -0.047368 0.572980 -0.326297 -0.563561 -1.092731 -0.751287 0.438136 -0.136363 0.831712 -0.108926 -0.184920 0.525282 0.431362 0.733029 -0.138366 0.472794 0.912348 0.236266 0.202587 0.988297 -0.766244 0.146939 -0.054826 -0.190532 -1.030172 0.445036
不可 0.113506 0.570758 -0.329525 0.393113 0.103349 -0.645896 -0.001551 -0.579045 -0.569473 -0.501027 0.142085 -0.846837 0.023631 0.448611 0.156679 0.254211 -0.141119 0.952201 -0.847319 -0.454127 1.178029 -0.527385 0.115838 0.719128 -1.637784 -0.803259 -0.772993 -0.528918 -0.634896 -0.114281
心 1.354387 -0.143827 -0.256056 1.033822 -0.283092 0.416969 0.166344 -0.794022 0.189113 -1.019184 0.909001 -0.864921 -0.864551 -0.005477 0.216188 0.449348 -0.376727 -0.316289 -0.776308 0.328862 0.186962 0.035948 -0.014088 1.059434 -0.184061 0.825494 -0.403048 0.672801 -0.720494 -0.195118
正 0.684268 -0.097065 -0.781082 0.741540 0.037003 0.186522 0.277659 -0.813226 0.170590 -0.500714 0.273213 -0.001669 -0.350270 0.205589 0.080884 -0.440456 -0.254895 0.550975 0.029495 -0.458409 0.753211 -0.012960 0.206256 -0.097884 -0.100410 0.563513 0.853741 0.793506 -1.677199 0.059963
非 0.376946 0.744584 -1.048851 0.313613 -0.204724 -0.139709 -0.266658 -0.657948 -0.874662 -0.553179 0.015638 -0.872636 -0.449455 0.358124 0.713673 0.107903 0.236732 0.781169 -0.302205 -0.947716 0.258035 -0.490343 -0.324685 0.725603 -1.741496 -0.427662 -1.117886 -0.781520 -1.347156 0.171278
不过 -0.823907 0.122020 0.287514 1.695767 -0.032058 0.310378 -0.702596 -0.242930 -0.937718 -0.629993 -0.511305 -0.735019 0.256182 0.683307 0.811744 0.912975 0.830454 0.678511 -0.134615 -0.011538 -0.249328 -0.914669 0.409540 0.223515 -0.199790 0.104723 0.246609 0.040598 -1.435326 0.140316
爹爹 -0.237658 -0.135785 0.196369 1.096057 0.717767 1.611333 -0.147342 -0.237120 0.126637 -0.343615 -0.393625 0.090484 0.584697 0.621344 -0.324997 0.436202 0.537820 0.069566 1.041316 0.716595 0.997079 -0.307994 -0.553629 0.587367 -1.102256 -0.126653 -1.047733 0.403666 -1.172962 0.374997
指 1.033481 -0.521683 0.005067 -0.120682 1.474796 0.696420 -0.600814 -0.164328 -0.866460 -0.375686 0.633684 -0.714094 -1.400031 0.360294 1.134607 -0.129188 -0.076716 1.036289 0.689760 -0.278498 -0.763091 -0.954030 -0.380649 0.987872 -0.446132 -0.554590 -0.440016 1.112676 0.076048 0.478548
正是 0.669534 -0.520147 -0.137302 0.592478 0.569707 0.485403 -0.254283 -0.923036 0.048639 0.378300 0.097408 -0.641519 -0.062310 0.780405 0.534858 -1.390227 -0.415318 -0.337351 0.592997 -0.309064 0.026528 0.113166 -0.345239 0.417234 -0.955059 -0.993057 0.131741 0.986971 -0.568757 -0.138600
招 -0.855625 -0.203039 -0.840922 1.613041 1.119554 -0.625071 -1.605932 -0.583413 -1.083186 -0.383996 0.376633 -0.413121 -1.118397 0.966107 0.548581 -0.162819 -0.532613 0.182861 -0.206202 -0.426176 0.220288 -0.181860 0.560613 0.824709 0.135563 -0.046204 0.189525 0.150806 -0.373208 0.662271
这时 0.950814 -0.647151 -0.564182 1.445987 -0.067380 -0.319202 -0.257278 -0.707998 0.142653 0.356925 -0.427466 -0.514891 0.100106 -0.536030 0.396506 -0.061028 0.685909 -0.116647 0.060526 -0.302774 0.367565 0.005565 0.498429 0.446636 0.181931 -0.131053 0.481162 1.203490 -0.630108 -0.133198
没有 0.800042 0.243599 0.874461 1.773555 0.522545 0.039580 -0.223866 -0.225777 -1.235248 0.706332 0.418502 0.449465 0.279663 0.451327 0.078460 1.196408 0.257003 0.169517 0.119452 0.227174 0.854677 0.148740 -0.172326 0.523649 -0.199942 -0.623561 -0.426217 -0.002431 -0.963256 -0.728683
受 0.274501 0.327674 0.835225 1.470522 -0.474672 0.733728 -0.229665 -0.460669 -0.376892 0.093645 0.007385 -1.102588 0.396647 -0.441762 0.612627 -0.328236 -0.503003 -1.174563 -1.039310 -0.635859 0.482586 0.802959 0.765831 1.286502 -0.987982 0.033113 -0.663584 -0.457482 -0.721004 -0.359931
下来 0.757767 0.364890 0.123449 0.986410 -0.139839 0.899772 -0.584684 -0.061763 0.025160 -0.695417 -0.099971 -0.021169 0.780871 -0.172201 0.894503 -0.558390 -0.606491 1.106934 -1.038630 0.636047 0.660498 -0.214023 0.704166 0.530206 -0.438092 0.586036 0.068451 1.145364 0.396907 -0.385437
这位 -0.267937 0.489788 -0.452103 0.495562 0.394527 1.754554 0.218483 -1.264549 -1.010353 -0.122311 -0.534703 -0.302854 0.062029 1.177680 0.355340 -0.468723 0.679673 0.137750 -0.687130 -0.023170 0.032298 -0.318332 -0.885967 -0.089937 -0.423872 -1.712893 0.407880 0.073847 -1.142045 0.692950
钟灵 1.252826 -0.419843 -0.147061 1.017833 0.560809 0.639649 0.233377 0.544478 0.651616 0.299281 -0.373683 -0.029258 -0.221155 -0.069417 0.645069 -0.490094 0.139814 -0.093092 0.048757 0.122154 0.336053 0.153222 -0.217793 0.152049 -1.042598 -0.458645 -0.624700 1.433976 -0.553474 -0.460497
最 -0.526297 0.177828 1.232161 1.103826 -1.209048 1.004501 -0.399196 -0.460290 0.202811 -0.578495 -0.354195 -0.645013 0.170315 0.620695 0.450299 0.484842 0.568474 0.619983 0.375864 0.003205 -0.983878 -0.010583 -0.062845 0.605634 -1.195204 -0.439239 0.366685 0.725614 -1.059466 0.826749
星宿 -0.212163 -0.280794 -0.720418 0.771408 0.037694 0.301202 -0.226735 -0.528767 -0.944005 -0.815824 1.567884 -1.202192 1.569900 0.065942 1.122201 -0.913828 0.386252 -0.877173 0.645109 0.639917 0.678857 -0.143817 0.316903 1.039376 -0.639526 -0.202916 0.092220 0.699033 1.102366 0.770029
均 1.220812 -0.072242 -1.125680 1.236321 -1.153506 0.557273 -0.517263 -0.703305 -1.045299 0.156266 0.236109 -0.865585 -0.764837 -0.873970 0.701430 0.529739 0.846520 -0.050508 0.339586 -1.029049 -0.320020 -0.071404 0.132345 0.089563 0.297473 0.452516 -0.053880 0.580033 -0.376834 0.641658
性命 0.041770 0.997166 -0.449653 1.132744 -0.148580 0.674357 0.180202 0.377522 -0.603401 0.524297 -0.800152 -0.886287 0.831884 -0.404986 0.571015 0.570537 -0.957585 -0.296596 -0.916770 -0.424969 1.284534 -0.231092 0.514532 1.463574 -1.436851 -0.205767 -0.945821 -0.204690 -0.688755 0.169431
件 0.858489 0.818620 -0.648291 0.500013 -0.314672 1.006055 0.060183 -0.464555 -1.711699 0.907403 0.054759 -0.735082 0.079154 0.236633 -0.274036 0.885124 -1.437973 0.669176 0.247781 0.175251 -0.316676 -1.656272 0.695388 0.168242 -0.696468 0.038536 -0.253257 0.534570 -0.311060 1.637644
别 0.085377 -0.053887 0.560658 0.966715 0.258215 0.422216 -0.321057 -0.486179 0.380341 -0.782961 0.000821 -0.409579 0.756680 0.748911 -0.447107 0.756811 -0.299429 1.504212 -0.584736 0.722561 1.330983 0.045687 -0.598158 0.089095 -1.233823 -0.188942 -0.697212 0.690429 -0.822347 -0.071129
处 1.422138 -0.033625 0.859175 0.846387 0.443642 -0.244706 -0.586646 -1.469869 0.605934 -0.742805 -0.574111 -0.867469 -0.769844 0.799139 0.314479 0.342189 -0.238041 0.172707 -0.374088 -0.430509 -0.304011 -0.759335 1.186599 0.729474 -0.342238 0.252974 -0.347991 -0.160256 -0.053657 0.009783
少女 0.889637 -0.213182 0.619102 0.797756 0.989250 0.156803 0.441211 0.339075 0.250193 0.880073 0.383390 -0.124354 0.574844 0.797651 1.711710 -0.890735 -0.716726 0.031490 -0.099576 -0.111150 0.184414 -0.420415 -0.222657 0.002892 -0.709541 -0.724510 0.771812 0.672842 -1.275189 -0.304061
当下 1.189114 0.008550 -0.556326 0.494523 0.297601 -0.357205 0.050359 -0.328775 0.348091 0.194565 0.198507 -0.432920 0.078669 0.201030 0.497358 -0.018699 0.139777 0.966473 -0.350285 -0.728561 0.604483 0.021887 -0.016437 0.724853 -0.865442 0.063299 0.168899 0.959311 0.406388 0.008332
待 0.179707 0.464608 -0.652948 1.103478 0.339727 0.723127 0.046336 -0.511827 0.546689 -0.427890 -0.438038 0.155456 0.213628 0.157543 0.161287 0.418876 0.566066 0.409234 -0.612051 0.594603 0.814848 -0.450838 0.459876 0.421550 -0.450923 -0.165024 0.265271 0.601974 -0.803927 0.510079
伸手 0.861560 -0.478460 -0.738890 0.129091 1.828693 0.288437 0.464636 0.580273 0.493797 0.294665 0.074691 -0.499916 0.021426 -0.473200 0.326013 -0.134518 -0.844811 1.284439 -0.699363 -0.444711 1.059028 -0.714333 -0.196030 0.286624 -0.344448 0.387962 -0.034149 2.037082 -0.543221 -0.763748
出去 0.878073 0.385693 -0.345422 1.090033 0.090156 0.304968 -0.319140 -0.066387 0.339203 -0.331003 -0.400005 0.151744 0.819746 0.285651 0.076147 -0.213495 -0.866378 1.036690 -0.266932 -0.085304 0.985751 0.188143 0.867121 -0.160056 -1.233116 0.149821 -0.233134 1.718914 0.384992 -0.168940
把 0.162228 -0.538335 -0.078912 0.379994 0.750003 1.020314 -0.259194 0.729990 -0.408441 -0.775276 -0.052245 -0.188305 1.172881 0.371881 0.698457 0.164420 -0.659288 1.177622 -0.064475 0.230568 0.708742 -0.778995 -0.259208 0.184781 -0.346427 0.999017 -0.731759 0.687543 -0.429202 1.033710
比 -0.408629 -0.475424 1.114223 1.156597 -0.228718 0.237071 -0.739867 -0.462656 -0.281392 -0.308267 -0.683125 -0.692200 0.226381 0.765912 0.578265 0.821338 0.268384 -0.055713 -0.349903 -0.390480 -0.614307 0.480338 0.486062 1.064923 -0.891462 -0.596895 -0.383605 0.355816 -1.238929 0.511072
虽然 -0.129425 -0.506163 -0.130689 0.719305 -0.448599 0.176302 -0.642714 -0.214474 -0.445541 0.182648 -0.163784 -0.489497 -0.082350 -0.314421 0.582843 0.304710 0.700884 -0.019891 0.144773 -0.642713 -0.146577 0.171271 -0.044510 1.252333 -0.204452 -0.283087 0.420875 0.375001 -1.425271 0.528242
般 0.645812 -0.239091 0.222448 0.214921 -0.684146 0.911551 -0.501918 0.086423 -0.031866 -0.035568 -0.438812 0.471631 -0.462687 1.093475 1.014981 0.078188 -1.465960 0.144432 0.728018 -0.035818 0.551452 0.045695 0.342997 0.300936 -0.387496 -0.115119 0.102067 0.512860 -1.347137 0.861481
听到 0.769392 -0.827133 -0.401243 1.576019 0.609316 0.123150 -0.084327 -1.276379 -0.076181 0.291046 0.079043 -0.407143 0.122580 0.396198 0.092221 -0.449980 0.418257 -0.459918 0.855447 0.712848 1.058698 -0.426652 -0.205101 0.063828 0.408803 -0.546125 0.702460 0.390994 -0.469818 0.541389
当即 0.985513 -0.323698 -0.992938 0.093211 0.432862 -0.263164 -0.187664 -0.571762 0.674196 -0.066927 0.435058 -0.714511 -0.285614 0.172982 0.571373 -0.158919 -0.191037 1.045354 -0.627934 -0.397986 1.228441 0.198842 -0.215743 0.570596 -0.623191 0.281329 -0.102441 1.015429 0.404062 -0.163716
天下 -0.194007 0.103270 0.602284 1.083965 -1.147047 0.544140 -0.752714 -2.091822 -0.802424 -0.782687 0.336870 -1.201513 -0.232484 0.464790 0.056444 -0.121900 -0.402742 0.224582 0.197927 -0.147690 0.602278 0.557329 -0.150145 0.642252 -0.749630 -0.951037 0.286292 -0.721596 -0.426665 1.366930
自然 0.066124 0.050593 0.115326 0.731226 0.090225 0.679900 -0.104015 -0.269339 -0.470028 -0.394559 0.146631 -0.249788 0.323406 -0.091106 0.116915 0.454402 0.417696 0.490197 0.410205 -0.072386 0.553527 -0.166650 -0.415730 1.020322 -0.530993 -0.282275 0.100026 0.154834 -1.105104 0.076448
未 0.409916 -0.769199 0.289542 0.854556 0.443227 0.207302 -0.283351 -0.958501 -0.590732 0.282982 0.395218 -0.706884 0.102107 0.425443 0.278405 1.483550 0.992020 -0.675301 -0.706240 0.444784 1.006353 -0.002971 1.272914 0.816468 0.795638 0.105170 0.467664 0.457988 -0.446069 0.121723
难 0.056606 0.289622 -0.296154 0.629734 -0.289754 -0.126010 0.557470 -0.512643 -0.940251 -0.202905 -0.084277 -0.613628 0.411500 0.642240 -0.568982 1.146003 1.045445 0.785213 -0.833048 -0.317813 -0.601491 -0.078014 0.963336 0.928894 -1.115147 -0.066312 0.407051 0.979715 -1.214145 0.206863
些 0.703541 0.625428 0.777634 1.723848 -0.023160 0.541580 -0.323909 -0.381428 0.111512 0.320461 -0.226406 0.747412 0.684066 0.412374 -1.105833 1.083100 -0.791382 0.690366 -0.164013 0.349864 0.324090 0.757732 0.416180 0.313645 -0.812727 0.145551 -0.299123 1.332737 -0.577631 0.089914
坐 1.812601 -0.043377 0.696040 0.399805 0.107866 1.416134 0.497460 -0.749906 0.235820 -0.257532 0.175108 -0.614252 0.286311 0.187544 1.036529 -0.244943 0.479104 1.145785 -1.312341 -0.759109 0.270262 0.083885 0.168189 -0.788426 -0.065859 0.720994 -0.012038 0.805327 0.369704 -0.026787
先 -0.533471 0.565040 -0.381246 1.010370 0.591011 0.707386 0.180180 -0.078654 0.383006 -0.872585 -0.200252 -0.634171 0.522691 0.034374 -0.162789 0.056535 0.050178 0.566064 -0.833102 -0.009554 0.901988 -0.435532 0.353487 0.437361 -1.185943 0.315708 -0.252268 0.571969 -0.285817 0.424290
左手 0.948768 -1.302921 -0.918668 -0.465210 1.891032 -0.006252 -0.205417 0.618396 -0.218240 -0.508703 0.193467 -0.469580 -0.647814 -0.032951 1.094684 -0.624853 -0.706949 1.119188 -0.058450 -0.529432 0.631319 -0.857219 -0.448407 1.358513 0.012814 0.352495 -0.325465 1.582956 -0.115984 -0.450592
岂 0.362825 0.577456 -0.066291 0.091270 0.065746 0.331302 0.029847 -1.196456 -0.877351 0.167895 1.150958 -0.556018 0.110042 0.157019 0.092098 0.543633 0.158501 0.399537 -0.170150 -0.348762 0.830069 0.138465 0.555610 0.987738 -1.342879 -0.049636 -0.149975 -1.201313 -1.126695 0.787516
地下 2.087103 -0.181907 -0.020527 0.032113 0.002592 0.874821 0.208484 -0.378667 -0.032669 -0.457637 0.221554 -0.388831 0.888875 -0.636579 1.278240 -0.801430 -0.655472 1.169566 -0.418424 0.403905 0.774090 -1.045050 0.186724 0.068685 0.149912 0.745857 0.124076 0.546289 0.460576 0.018089
拿 0.285091 0.311854 -0.087518 0.724049 1.689105 0.961475 -0.081846 0.415301 -0.527977 -0.149189 0.781138 0.421539 0.727923 -0.109243 0.240514 0.102723 -0.913163 1.054553 0.299814 -0.451625 0.945959 -0.906180 -0.318040 0.590345 -0.127479 0.800549 -0.471171 1.257021 -0.829092 -0.321092
西夏 -0.487456 0.031575 -0.984727 0.126349 0.926835 1.660579 0.753072 -0.658816 -1.428043 0.157435 1.080448 -0.715903 1.047026 0.544031 -0.419388 -1.414579 -0.283226 -0.402708 0.442541 -1.184493 0.820186 0.055802 -0.028110 0.100902 -0.324440 0.873459 0.765506 0.292177 -0.332500 0.504987
实 0.296636 0.250361 0.303882 0.418867 -0.779555 0.372834 0.171860 -0.914014 -0.778545 0.361106 0.109885 -1.005253 0.105491 -0.527897 0.470222 0.415159 0.347775 0.963101 -0.343917 -1.510661 -0.665691 -0.265209 0.224271 0.833047 -0.140252 -0.030010 0.575817 0.242360 -1.047705 0.693473
之下 0.747703 -0.224381 -0.669629 0.529757 -0.076198 -0.211760 -0.537600 -0.817259 0.516553 0.395676 0.985100 -1.102767 -0.570265 -1.161659 1.099316 -0.620052 -0.296308 0.009500 -0.355489 -0.394614 0.489502 -0.238795 -0.451135 0.792122 0.131447 0.091092 -0.316627 0.060331 -0.163825 0.025518
过来 0.838046 -0.089386 -0.772469 0.671329 0.803175 0.379461 -0.511959 0.033695 0.167689 0.279986 -0.316999 0.302553 0.518481 0.823036 0.541518 -0.025634 -0.518462 0.836177 -0.261336 -0.187598 1.467669 0.307767 -0.022154 0.119449 -0.550511 0.095573 -0.325539 1.238699 0.510029 -0.071851
厉害 -0.167914 0.555671 0.261197 1.110195 -1.295090 0.196206 -0.807997 -0.502466 -0.448391 0.427095 -0.006064 0.383291 0.218797 0.110301 0.379087 0.344774 -0.096562 0.707345 0.559806 -0.033534 -0.476326 0.376345 0.410841 1.252126 -1.077937 -0.840422 0.709856 0.952520 -1.309070 0.872992
喝道 0.432092 -0.139945 -0.889115 0.511225 0.495201 0.271875 -0.216373 -0.304575 0.644741 0.679858 1.218701 -0.544207 0.277250 0.942182 1.571490 -1.347786 0.331110 0.491241 -0.104356 1.453611 0.662371 -0.450355 -0.562519 -0.327698 -1.345211 0.077197 -0.467556 0.660541 -0.422870 -0.586671
全 0.505826 -0.591818 0.174311 0.090653 -0.164436 0.357498 -0.359460 -0.506584 -1.290109 -0.116499 -0.400899 -1.101290 0.032330 -0.004757 0.889999 1.370939 0.002546 -0.266583 0.062130 0.038883 0.595067 -0.619014 0.171482 0.614180 0.377408 -1.131989 -0.551294 0.389367 -0.689585 -0.150466
心下 0.771173 0.285612 -1.177380 1.699823 -1.484545 -0.487846 0.067114 -0.247570 -0.161624 0.122532 0.329040 -0.893030 0.017950 -0.985973 0.930806 0.405435 1.027425 0.030281 -0.818783 -0.126182 -0.585089 -0.376906 -0.469978 0.133654 0.209609 -0.198532 0.038514 1.168117 -0.824081 -0.188427
掌 -0.359608 -0.647735 -1.580035 -0.086242 0.770064 0.059556 -0.673364 -0.022544 -0.286709 -0.403677 -0.613926 -0.700264 -1.058530 0.345803 1.063615 -0.785932 -0.865254 0.389693 -0.755534 -0.280525 0.013864 -0.656586 0.901164 0.913971 -0.766333 0.068061 -0.100899 0.203098 -0.909663 1.525413
须 0.119640 0.073992 -0.534008 0.235588 -0.048549 0.336561 0.126773 -0.250540 0.007534 -0.426923 -0.214893 -0.304792 0.229754 0.364806 0.301879 0.126436 0.085691 0.528244 -0.021861 0.450222 0.142932 -0.167786 0.942602 0.773839 -1.192537 0.777526 0.578066 0.128108 -0.762318 0.911651
本 -0.174308 -0.043360 -0.635455 0.496800 0.419252 1.088765 0.344107 0.014491 -1.724273 -0.892249 0.546981 -1.586238 -0.961657 0.743968 0.448852 0.527190 0.292638 -0.731093 -0.502545 -0.027643 -0.602559 -0.650836 0.666673 -0.500812 -0.436641 -0.052456 0.158703 0.668287 -0.488898 0.469109
登时 1.644864 -0.334951 -0.801912 1.613377 -0.690605 -0.659845 -0.574535 -0.327925 0.323112 -0.008264 -0.186769 -0.647350 -0.096850 -1.262295 0.869827 -0.730148 -0.438678 0.325304 -0.144189 0.712949 0.803831 -0.069806 -0.420387 0.444740 0.223745 0.455772 0.055228 0.223219 0.304409 0.583548
双手 1.322355 -1.218861 -0.312708 -0.285675 1.306316 0.048602 0.290819 0.168044 0.445945 0.535104 0.492782 -0.926647 0.356267 -0.414770 0.988427 -0.396942 -0.364248 1.271914 -0.591860 0.054312 0.132918 -0.270703 -0.665645 1.053132 -0.144438 1.069979 -0.465472 1.258579 0.185819 -0.086186
次 -0.156304 -0.066165 -1.079247 1.685172 0.338315 0.221470 -0.466334 -0.207833 -1.161127 -0.383289 -0.298797 -0.342868 -0.694990 0.470892 0.314279 0.834492 -0.312884 -0.357555 -0.593162 -0.408239 1.023868 -0.750220 0.533425 -0.101031 0.745159 0.173010 -0.075561 0.015027 -0.099678 1.264768
眼 1.821646 -0.038132 -0.533174 1.429851 0.072182 0.579530 0.586704 0.558289 -0.815248 0.144931 0.190536 -0.031474 -0.883370 -0.144688 0.709565 0.793113 -0.236964 -0.099441 -1.034591 -0.248514 0.361235 -0.258886 0.059034 -0.958017 -0.189647 -0.447833 -0.036005 1.194588 0.042429 1.001398
只怕 0.043840 0.469817 0.140069 0.973694 -0.393770 -0.159846 -0.582995 -0.409233 -0.958621 -0.418076 -0.186887 -0.364145 0.392016 0.235072 0.562127 0.816959 0.058950 0.410553 -0.276431 -0.136917 0.666689 -0.338757 0.400203 0.609313 -0.631815 -0.605746 -0.283911 -0.302918 -0.996724 0.051246
伤 0.225448 0.478287 0.941190 1.038960 -0.255312 0.659103 -0.680930 -0.355760 -0.041472 -0.235739 -0.366943 -0.841982 0.037085 0.014093 0.520604 0.228159 -0.384004 -0.205903 -0.911837 0.103794 0.585721 0.454503 0.999599 1.548427 -1.527764 -0.120041 -0.699699 -0.085254 -0.692063 -0.603885
惊 0.987376 0.616099 -1.825047 1.709378 -0.402430 0.544138 -0.032713 -0.103704 -0.195610 1.158616 1.258252 -0.117894 -1.193631 -0.491776 1.162369 -0.034161 -0.192570 -0.327094 -0.920399 0.712174 0.328320 -0.030204 -0.682983 0.038855 0.070996 0.679711 -0.030250 0.860353 -1.148861 -0.012288
不得 0.943645 0.040617 -0.446671 0.739689 -0.079205 -0.552328 -0.572911 -0.517982 -1.071877 -0.400769 0.128847 0.145570 0.467070 -0.352586 0.122335 0.372155 0.605473 0.598113 0.221708 0.310386 1.531566 -0.022487 0.508309 1.328304 -1.171682 -0.701940 -0.801489 -0.314098 -0.187136 -0.442851
帮主 0.025089 -0.211108 -0.741264 -0.116288 0.027262 1.392842 0.359620 -0.603020 -1.880562 0.301161 0.177770 -0.916830 0.757954 0.214436 -0.967369 0.125085 -0.006912 -0.058109 -0.194790 -0.046821 0.416683 0.479468 -0.597562 0.218248 -0.969851 -1.189657 -0.573979 0.886999 0.322070 0.802368
进 -0.034578 -0.390008 0.077603 0.924545 0.591061 0.401493 -1.213210 -0.574325 -0.358983 -0.467591 0.134307 0.331655 0.293746 1.533448 0.188805 -0.436464 -0.471986 0.972117 0.106621 -0.084586 0.756671 0.673191 0.806170 -0.449738 -0.081801 0.733688 0.303237 1.698978 0.226579 -0.883523
定 -0.035648 0.791640 -0.344809 0.952166 0.401455 0.942392 -0.169501 -0.211706 -0.653474 -0.168751 0.378066 -0.125468 0.240555 -0.461262 0.021552 0.168190 -0.394273 0.194937 0.230118 -0.308595 0.515576 -0.994358 0.189759 0.874664 -0.222495 0.207418 0.499213 0.218084 -1.450211 0.400603
眼见 0.320611 -0.286991 -0.716751 0.803144 0.008616 -0.177965 -0.538484 -0.309869 -0.315129 0.162310 -0.207470 -0.415997 0.045305 -0.723243 0.883548 -0.728831 0.498234 0.102211 0.015622 -0.974464 0.157164 -0.174662 0.868615 0.234989 -0.203032 -0.289176 0.099210 0.891747 -0.391342 -0.218250
第一 -0.251957 0.359509 -0.118106 1.201215 -0.444864 0.398828 -0.519186 -1.139127 -1.848696 -0.954161 0.345644 -1.061157 -0.708121 0.745390 -0.195459 -0.399989 -1.064091 0.541194 -0.221743 -0.643794 0.044654 0.031845 -0.116883 -0.634678 -0.167173 -0.800342 0.435570 0.039396 0.078904 1.125977
哪 -0.210496 0.429528 -0.046046 0.453908 -0.053474 1.107494 -0.352343 -1.237678 -0.335146 0.805980 0.107037 -0.139978 0.339084 0.395877 0.532131 0.183918 -0.363925 0.041104 0.555051 0.037956 0.779336 -0.291075 0.922868 0.230678 -0.792044 -0.144518 0.018542 -0.490216 -1.496813 0.770267
喝 0.224528 0.124332 -1.014674 1.298179 0.050926 0.595531 -0.505635 0.516581 -1.475712 0.496131 -0.075502 0.261283 0.955314 0.863695 0.401715 0.997924 -0.019334 0.484812 -0.587756 1.364802 0.445458 -0.326585 0.965665 -0.721109 -0.022930 1.126968 -0.607633 0.932625 -0.020038 0.593929
大哥 -0.263768 -0.271844 -0.642991 0.968425 1.063689 1.085881 -0.367164 -1.256005 -0.699890 -0.039211 -0.680324 -0.617583 0.846137 0.351057 -1.105335 -0.767883 0.670673 0.635178 -0.342921 0.397273 -0.097758 -0.319769 -1.311175 0.050182 -0.326755 -0.774840 -0.253557 0.551961 -0.964959 0.148285
救 -0.456325 0.730389 -0.463327 0.852071 0.549728 1.239682 0.739170 0.125126 -0.583309 -0.092689 -0.573961 -0.635658 0.466673 0.337040 -0.473441 0.607739 -0.208157 -0.374232 -0.421650 -0.613284 0.961135 -0.208357 0.643632 0.498494 -1.514552 -0.331891 -0.600812 0.753741 -1.190487 -0.214974
难道 -0.246318 0.675145 0.578121 0.880983 0.403356 0.702034 0.193527 -0.593217 -1.108933 -0.112691 1.350269 -0.373338 0.710082 -0.103403 0.353406 0.404084 0.156216 -0.018655 0.162260 0.189882 0.626597 -1.039596 0.012030 0.100552 -0.783305 -0.865420 -0.520516 -0.254409 -0.862398 0.463846
前 -0.397603 -0.046248 0.348430 0.962066 0.851888 0.784780 -0.629221 -1.540334 0.124757 -1.163675 -0.286951 -1.016038 -0.378582 0.754448 0.648254 -0.636770 -0.283848 0.439446 -1.428962 -0.617814 0.773644 -0.503905 -0.009768 -0.281923 0.733439 -0.302177 -0.044537 0.144871 0.644934 0.217992
师兄 -0.648102 0.502520 -0.439652 0.294855 -0.815833 1.140219 -0.091273 -0.486270 -0.337588 -0.123130 -0.765997 -1.178234 -0.261540 1.421084 0.706737 0.331037 1.269339 -0.117212 -0.949875 0.067985 0.109772 -0.030640 0.793661 -0.435425 -1.297621 -1.167378 0.070839 0.710777 0.523536 0.234346
下去 0.383381 0.325528 -0.290706 0.826643 0.319290 0.363429 -0.403982 0.317018 0.050340 -0.908659 -0.349975 -0.089982 -0.009319 0.160532 0.468498 0.106040 -0.250839 0.826525 -1.192753 0.688630 0.742695 -0.394731 0.597863 0.104549 -0.570430 0.033673 -0.005425 1.216171 0.146324 0.074639
天 0.001503 0.155559 0.444329 2.158780 0.629372 0.402152 -1.124755 -0.709963 -1.035379 -0.535041 -0.532507 0.150265 -0.061649 0.903068 0.366554 0.220391 -0.083446 0.634194 -0.968478 0.503400 0.215883 -0.598114 0.748225 -0.497504 0.603916 0.693415 -0.237746 -0.476920 -0.397154 0.514489
英雄 0.782418 0.199684 0.693782 0.814187 -1.594493 1.408831 -0.335580 -1.815258 -1.135828 -0.196636 0.239845 -0.684863 0.259062 -0.275237 -0.480182 -0.600576 -0.514933 0.946806 -0.133122 -0.243051 0.692531 1.607927 -0.739047 -0.012576 -0.615514 -0.412496 -0.081560 -0.493395 0.153459 1.235476
右手 0.631295 -1.367525 -0.722741 -0.239066 1.735043 0.210640 -0.403906 0.585769 -0.335376 -0.291441 -0.027054 -0.577296 -0.330580 0.037993 1.259262 -0.682642 -1.001483 1.232175 -0.019884 -0.435145 0.254389 -0.740666 -0.509420 1.276965 0.282441 0.484490 -0.080004 1.653878 0.030010 -0.108800
本来 0.287102 -0.453245 -0.182587 0.765415 -0.260362 0.324137 -0.026008 -0.277738 -1.072182 -0.013317 -0.012216 -0.698847 0.533972 -0.275494 0.401629 0.491199 0.103946 0.130303 0.400555 -0.355008 -0.025616 -0.374831 -0.743550 0.534686 0.286469 -0.447258 -0.147586 0.457268 -0.930213 0.497327
派 -0.922923 -0.293039 -0.276676 1.113147 -0.114196 0.644025 -0.731099 -0.155770 -0.879355 -0.311388 1.156541 -1.020240 0.976631 0.425476 0.522533 -0.141548 0.770003 -0.863927 1.016667 -0.107488 0.438315 0.259210 0.805362 0.966051 -0.946366 0.545034 -0.081170 0.925058 0.864509 0.738908
似乎 0.943886 -0.653267 -0.006341 1.118963 -0.275705 -0.221709 -0.226319 -0.525631 -0.556521 0.033179 0.117261 -0.271631 0.115237 -0.186917 0.586078 0.039778 -0.032261 0.068004 0.407254 -0.018126 0.302843 -0.416135 -0.241299 0.667526 0.625722 -0.225329 0.667688 0.344619 -1.051498 0.523361
学 -0.335093 -0.097373 0.926183 0.624684 0.741285 1.351329 -0.903465 -0.475212 -0.641832 -0.070707 0.364090 -0.010814 -0.194828 0.765698 0.268031 0.867476 0.244639 0.114750 0.565845 0.235243 0.352927 0.075979 0.645768 1.442122 -0.354137 -0.003838 0.722738 0.687262 -1.126041 0.229292
不由得 1.453273 0.036362 -0.772576 2.035711 -0.576777 -0.286831 -0.043209 -0.143729 0.167348 0.436387 0.192400 0.030544 -0.918718 -0.872125 0.433766 0.511332 -0.140424 -0.094360 -0.861519 0.496629 0.304249 0.321647 -0.632996 0.141393 0.623209 0.192017 0.100772 0.813264 -0.935815 0.186935
手中 0.626815 -0.752102 -0.131813 -0.290498 0.820318 1.093509 0.155232 0.459698 -0.557905 0.533091 0.225431 -0.891483 1.156845 -0.098063 1.118313 -0.050124 -0.186674 0.491322 0.443002 -0.704591 0.167315 -0.874660 0.260557 1.085795 -0.365136 0.820302 -0.407462 1.243520 0.456432 0.400292
十分 0.632780 -0.066828 -0.041632 1.366234 -1.495219 -0.421876 0.439366 -0.304941 -0.084805 0.113959 0.015489 -0.359321 0.440951 -0.567484 0.607362 0.357667 0.890536 0.477127 0.415697 -0.273957 -0.622102 -0.223069 -0.338771 0.619693 -0.147806 -0.305358 0.970078 0.887352 -1.497350 0.447205
想到 0.576745 -0.130228 -0.748531 1.042367 0.154221 0.248661 -0.096545 -0.794778 -0.148296 0.182534 -0.555796 -0.338934 -0.267322 -0.172271 0.292171 0.237442 -0.109725 -0.697174 0.417359 0.445601 1.386592 -0.615820 0.253835 0.503352 0.261629 -0.851624 0.120149 -0.014437 -1.050495 -0.134692
分 1.038144 0.063671 0.060019 1.308879 0.320073 -0.882168 -0.383664 -0.338806 -0.290511 0.787911 0.235777 -0.775883 -0.176495 0.894837 0.369174 1.357410 -0.535278 0.405500 -1.148330 -0.583155 0.284703 -0.454296 0.861338 0.010228 -0.256831 0.526184 -0.118280 0.152940 0.112205 0.995621
八 -0.025583 -0.262198 0.809126 2.014729 1.341440 0.486110 0.116620 -0.278303 -1.197468 -0.302470 0.383134 -0.532707 0.919288 1.280542 -0.035291 -0.784725 0.571565 0.667635 -0.291882 0.065419 -1.174759 0.006813 -0.340266 -0.936012 -0.492410 1.080232 -0.367548 -0.272904 0.178434 1.189226
呢 -0.349185 0.999210 0.360504 0.892379 0.734462 0.784428 0.800327 -0.186951 -0.260772 0.438323 0.446855 0.464826 0.991976 0.178243 -0.401833 0.162116 0.094106 0.564396 0.245329 0.080127 0.033288 -0.246773 0.328602 -0.108866 -1.378427 -0.426220 -0.011975 0.511697 -1.408129 0.038232
姊姊 0.895364 0.229921 0.290444 0.948736 0.114780 1.941410 0.652105 -0.810365 -0.569659 -0.270140 -1.178346 0.179264 0.035956 1.003780 -0.682783 0.122569 0.190829 0.183836 -0.518088 0.498659 0.422733 0.292378 -1.066450 -0.354816 -0.520333 -0.605927 -0.508779 -0.558072 -1.105198 0.576336
一阵 1.168175 -0.482233 -0.115763 1.734360 -0.159271 -0.306754 -1.111919 -0.307020 0.792306 0.817273 -1.036631 0.455896 -1.203810 0.088385 -0.088517 0.019779 -0.781537 0.577562 0.245836 1.088386 -0.310701 0.280964 -0.522253 0.645498 0.526978 0.347605 0.150418 1.254243 -1.504317 -0.626298
阿碧 1.641044 -0.284376 -0.761195 0.831744 1.233843 1.156966 0.917981 -0.319055 0.284999 1.040276 -1.107056 0.247608 -0.295692 0.739451 -0.039108 -0.559214 0.745599 0.036296 -0.479221 -0.220082 -0.238758 0.226400 -0.472662 -0.443978 -1.008985 -0.030702 -0.956368 0.240258 -1.166504 0.284280
为什么 0.289256 0.703487 -0.015569 0.400887 0.231517 1.276806 1.047783 -0.025982 0.126166 -0.400449 0.912245 0.044693 0.004306 -0.319422 0.188396 0.055535 0.023660 -0.092598 0.302592 0.795732 1.175786 -0.680422 -0.189820 -0.207178 -1.096749 -0.155892 0.164256 -0.103658 -1.913969 -0.204391
找 -0.471311 0.817444 -0.204360 1.743539 0.810143 1.075609 -0.095327 -0.400213 -0.076207 -0.073282 -0.987161 0.434826 0.600942 0.673887 -0.934133 -0.050985 0.080170 -0.107997 0.168285 -0.435526 0.626783 -0.248648 1.181899 -0.513329 -0.701662 -0.057931 0.825975 1.078416 -1.319884 -0.253906
作 0.729399 -0.270037 0.431059 0.636825 0.565335 0.135477 0.247588 -0.615485 0.132112 -0.787196 0.991851 -0.227594 0.093939 0.061203 -0.695221 0.020950 -0.316817 0.758067 -0.022758 -0.537856 0.163035 0.519301 -0.224625 0.679159 -1.381103 0.275359 -0.129809 0.246427 -0.795441 1.069198
拍 0.877228 -0.623866 -1.339529 -0.237104 0.843051 0.270490 -0.627850 0.218373 0.895156 -0.010425 -0.623388 -0.392364 -1.220449 0.096737 1.104169 -1.493152 -1.161498 1.140151 -0.715258 0.576335 0.576506 -0.357558 0.652226 0.905565 -1.330637 0.319740 0.064034 0.794953 -0.485837 1.037150
肯 0.353339 0.260544 -0.087492 -0.080461 1.313380 0.777716 0.506980 -0.453917 -0.876964 -0.671640 0.574514 -0.301390 0.275440 -0.663329 -0.713683 0.916330 0.868930 0.973496 -0.711554 -0.034869 1.364915 -0.522642 -0.022075 1.105764 -1.066132 -0.233848 -0.256843 -0.563125 -1.164437 0.308734
居然 0.420317 -0.494600 0.292134 0.459325 0.244818 0.369078 -0.253185 -0.474141 -0.406454 -0.021214 0.472993 -0.407859 0.428133 0.012093 1.013302 0.337471 0.553362 -0.129334 0.229116 0.410385 0.788549 -0.560042 0.723251 0.850661 -0.347550 -0.191559 -0.015182 -0.493337 -0.828548 0.785743
高 -0.351221 -0.323503 0.845420 0.617404 -0.280006 0.132507 -0.707897 -0.435268 0.279139 -0.347118 0.128907 -0.700383 -0.246127 0.680691 1.366883 0.053496 0.743527 0.552255 -0.386643 -0.469321 -0.822492 0.463943 0.888451 0.909901 -0.665723 0.410172 1.047675 0.731469 -1.317301 0.162114
五 0.161949 -0.676792 0.346521 1.096960 1.005795 0.160428 -1.028127 -0.405963 -0.897483 -0.467094 -0.100814 -1.088299 0.052060 0.943479 0.975655 -0.635906 0.013896 0.597721 0.068911 -0.844248 -0.927900 -0.323195 0.076064 0.242292 -0.158664 0.660162 -0.631623 0.376592 0.582744 0.521990
另 0.452730 0.229152 0.100305 0.170740 0.055898 0.690930 0.313025 -0.649414 -0.244213 0.229981 0.479216 -0.663861 0.174088 1.049095 0.818725 -0.275964 -0.651340 0.378078 0.598620 -0.480970 0.644400 -0.916080 0.311200 0.154578 -0.538275 0.656557 0.966206 0.033056 -0.327538 0.792796
岁 -1.070517 -0.820673 1.322294 1.549034 0.344143 -0.396566 -1.120412 -0.395226 -0.343745 1.114192 -0.789069 -1.008644 1.267719 1.324746 1.092983 -0.013582 -0.653497 0.582409 -1.031322 -0.725870 -0.621659 0.048426 -0.541529 -0.386323 -0.026090 0.276953 -0.601593 -0.545980 -1.634772 -0.215745
段延庆 0.439983 -0.473831 -0.922748 0.542036 0.809327 0.652244 -0.266985 -0.039634 -0.861673 0.026586 0.042387 -0.312783 -0.516740 -0.212378 0.441986 -0.635798 0.207262 -0.497188 0.020733 -0.640242 -0.037551 0.034081 0.234202 0.516007 0.065177 -0.440436 0.196462 1.298503 -0.094537 -0.035577
身来 1.117766 -0.384135 -0.538074 0.860464 0.981511 0.311802 0.564018 -0.377536 0.603665 0.086872 1.423606 -0.089768 -0.132140 0.756775 0.704026 -0.044166 -0.470320 1.194510 -1.112532 -0.318797 1.716483 0.597114 -1.664634 0.031797 0.708112 0.941249 0.400585 1.423686 0.260095 -0.639610
对方 0.067506 -0.136581 -0.629235 0.808609 0.392829 -0.225910 -0.794701 -0.173556 0.015098 -0.094931 -0.331332 -0.306108 -0.280403 -0.803368 0.536870 0.192577 -0.057411 0.148811 0.271623 -0.961100 0.540020 -0.368665 0.617072 1.547123 -0.195798 -0.107328 0.337092 0.281693 -0.649245 0.541412
奔 -0.183793 -0.256571 -0.298226 1.180916 0.321026 -0.388984 -1.266372 -0.322383 0.867951 0.104868 -0.477280 -0.363379 0.180063 0.708906 0.794662 -0.846800 -0.584275 0.658802 -0.794429 -0.652333 0.510848 0.811633 1.187439 -0.344356 -0.351041 0.701711 0.328212 1.745827 -0.042673 -1.061960
微微 2.069978 -0.563973 -1.512791 0.300188 0.631937 0.463567 0.580869 -0.238300 -0.502253 2.153841 0.543493 0.024945 -0.789436 -0.101932 1.222421 -0.138272 0.102595 -0.197849 -0.830394 0.806177 0.325329 0.148450 -0.536456 0.558695 0.286870 0.306716 0.043628 0.766814 -0.884385 0.232879
武林 0.780349 -0.363506 0.354538 0.184143 -1.072879 1.021968 -0.009859 -2.151629 -1.868323 -1.320128 0.442445 -1.404706 -0.039420 0.353977 -0.863871 -0.075250 0.161182 0.358940 0.827441 -0.856998 0.615355 0.229490 -0.385224 0.367545 0.176129 -0.820801 0.843559 0.217774 0.652728 0.738465
